//Numpy array shape [3, 3, 4, 4]
//Min -0.291054844856
//Max 0.282628178596
//Number of zeros 0

#ifndef W10_H_
#define W10_H_

#ifndef __SYNTHESIS__
convd1_2_weight_t w10[144];
#else
convd1_2_weight_t w10[144] = {-0.132916, 0.366991, 0.204445, 0.059292, -0.177862, 0.133124, -0.003594, -0.098511, -0.439556, 0.160031, -0.051683, 0.002975, 0.012315, 0.025920, -0.225165, 0.085256, -0.147068, 0.362249, -0.065530, -0.320362, 0.242381, 0.331883, 0.081790, -0.048285, -0.280493, -0.431397, -0.124942, -0.129792, -0.314839, -0.385709, -0.144009, -0.075712, 0.346464, -0.035459, 0.192035, 0.296882, -0.249522, -0.434900, -0.041591, 0.388890, 0.386329, 0.374704, -0.164091, 0.272504, 0.054035, 0.051949, -0.387945, 0.242112, 0.211262, -0.367854, -0.315595, 0.025759, -0.102223, 0.070871, -0.095567, -0.416810, 0.300486, -0.121528, -0.377043, -0.202340, 0.428440, 0.212311, 0.378784, 0.257631, 0.356294, -0.347706, 0.309815, 0.065278, 0.033257, 0.117732, 0.232103, -0.000166, 0.066025, 0.239848, 0.222811, -0.180884, 0.076895, -0.430048, 0.245284, -0.309637, 0.267272, 0.251740, 0.321004, -0.065088, -0.413523, 0.131965, 0.156823, -0.324471, 0.008413, -0.229837, -0.166602, 0.043531, 0.292040, 0.299943, 0.112374, -0.248437, 0.349889, 0.359064, -0.002920, -0.141429, -0.386672, -0.336117, -0.384018, -0.339631, -0.116477, 0.154504, -0.191747, -0.105520, 0.194522, 0.220109, 0.131381, -0.170100, 0.402118, 0.079856, 0.244233, 0.361781, 0.293356, 0.323625, 0.126564, 0.165451, -0.330407, 0.227039, 0.144307, -0.157259, -0.009347, -0.117554, -0.250859, -0.358407, 0.380348, 0.226744, -0.281617, -0.301629, -0.232865, 0.024274, -0.029204, 0.013293, -0.243317, -0.282463, 0.281430, -0.227103, -0.206137, 0.199670, 0.293019, 0.148740};
#endif

#endif
