//Numpy array shape [3, 3, 4, 4]
//Min -0.291021317244
//Max 0.282642245293
//Number of zeros 0

#ifndef W10_H_
#define W10_H_

#ifndef __SYNTHESIS__
convd1_2_weight_t w10[144];
#else
convd1_2_weight_t w10[144] = {-0.132930, 0.367007, 0.204514, 0.059244, -0.177834, 0.133131, -0.003602, -0.098567, -0.439555, 0.160033, -0.051691, 0.003036, 0.012321, 0.025922, -0.225208, 0.085275, -0.147022, 0.362254, -0.065523, -0.320252, 0.242393, 0.331860, 0.081782, -0.048286, -0.280515, -0.431394, -0.124971, -0.129798, -0.314827, -0.385720, -0.144061, -0.075732, 0.346513, -0.035423, 0.192018, 0.296840, -0.249511, -0.434848, -0.041629, 0.388880, 0.386315, 0.374672, -0.164144, 0.272529, 0.054021, 0.051946, -0.387985, 0.242124, 0.211300, -0.367855, -0.315640, 0.025752, -0.102220, 0.070866, -0.095606, -0.416840, 0.300492, -0.121488, -0.377118, -0.202310, 0.428409, 0.212317, 0.378863, 0.257620, 0.356298, -0.347702, 0.309837, 0.065271, 0.033286, 0.117722, 0.232140, -0.000175, 0.066057, 0.239847, 0.222833, -0.180924, 0.076918, -0.430032, 0.245311, -0.309653, 0.267291, 0.251775, 0.321054, -0.065093, -0.413515, 0.131926, 0.156863, -0.324455, 0.008424, -0.229841, -0.166633, 0.043491, 0.292067, 0.299958, 0.112399, -0.248467, 0.349907, 0.359070, -0.002885, -0.141458, -0.386941, -0.336090, -0.384083, -0.339592, -0.116478, 0.154520, -0.191777, -0.105515, 0.194489, 0.220123, 0.131468, -0.170015, 0.402164, 0.079866, 0.244255, 0.361911, 0.293380, 0.323617, 0.126578, 0.165431, -0.330402, 0.227047, 0.144333, -0.157239, -0.009336, -0.117552, -0.250912, -0.358378, 0.380291, 0.226735, -0.281680, -0.301591, -0.232857, 0.024280, -0.029200, 0.013232, -0.243290, -0.282467, 0.281471, -0.227080, -0.206153, 0.199685, 0.293067, 0.148796};
#endif

#endif
