//Numpy array shape [3, 3, 4, 4]
//Min -0.287824571133
//Max 0.285600870848
//Number of zeros 0

#ifndef W14_H_
#define W14_H_

#ifndef __SYNTHESIS__
pool3_weight_t w14[144];
#else
pool3_weight_t w14[144] = {0.226763, -0.134572, 0.295114, 0.289651, -0.398127, 0.081586, 0.141909, 0.229554, 0.167924, 0.052742, 0.153628, 0.434862, 0.060480, 0.191240, -0.113881, -0.377970, -0.215281, 0.121943, -0.294980, -0.330224, 0.081166, -0.043056, 0.254360, -0.422122, -0.236005, -0.334251, -0.020107, 0.301696, -0.055377, -0.055347, 0.195941, 0.376205, -0.363128, -0.284938, 0.291086, -0.305179, 0.439857, 0.268834, 0.039365, -0.103994, -0.008562, 0.010460, -0.375788, -0.397760, 0.066117, -0.411741, 0.397031, 0.009657, -0.048074, 0.195664, -0.015819, 0.134739, 0.257610, -0.300748, 0.423749, -0.341500, -0.281917, 0.418727, 0.058092, 0.038920, -0.009826, 0.350526, -0.205991, -0.020527, 0.334997, 0.183440, -0.280150, -0.023847, -0.054193, 0.220578, 0.422139, 0.057956, -0.040401, -0.421987, 0.145315, -0.323183, -0.325317, 0.324903, 0.142207, 0.035381, 0.201757, 0.123115, 0.394819, 0.020273, -0.201471, -0.326309, -0.141683, -0.240098, -0.101191, -0.238342, -0.059146, -0.121121, 0.130975, 0.354635, 0.019476, 0.439541, -0.126989, -0.233855, -0.194348, 0.111681, -0.192032, 0.306518, 0.074511, -0.343378, 0.103334, -0.007969, 0.166990, 0.253801, -0.238655, 0.355585, 0.327539, 0.191367, 0.418670, -0.203553, -0.072742, 0.014190, -0.298377, -0.157712, 0.290982, 0.046618, -0.339833, -0.144231, -0.258626, -0.435498, 0.289293, -0.290360, -0.267646, -0.158425, -0.425139, -0.323403, 0.333751, 0.304167, -0.076747, 0.286744, -0.330667, -0.104240, -0.072641, 0.412773, -0.306251, -0.269678, -0.051664, -0.315061, -0.328357, -0.413306};
#endif

#endif
