//Numpy array shape [3, 3, 4, 4]
//Min -0.287826538086
//Max 0.285622447729
//Number of zeros 0

#ifndef W14_H_
#define W14_H_

#ifndef __SYNTHESIS__
pool3_weight_t w14[144];
#else
pool3_weight_t w14[144] = {0.226769, -0.134621, 0.295050, 0.289574, -0.398120, 0.081545, 0.141896, 0.229445, 0.167962, 0.052756, 0.153620, 0.434765, 0.060483, 0.191185, -0.113867, -0.378025, -0.215329, 0.121863, -0.294986, -0.330214, 0.081169, -0.043056, 0.254365, -0.422092, -0.235961, -0.334234, -0.020090, 0.301603, -0.055418, -0.055359, 0.195945, 0.376165, -0.363121, -0.284935, 0.291070, -0.305198, 0.439888, 0.268835, 0.039363, -0.104077, -0.008550, 0.010452, -0.375787, -0.397786, 0.066105, -0.411764, 0.397039, 0.009589, -0.048060, 0.195635, -0.015828, 0.134663, 0.257612, -0.300776, 0.423734, -0.341505, -0.281908, 0.418758, 0.058089, 0.038876, -0.009825, 0.350521, -0.206006, -0.020556, 0.335024, 0.183438, -0.280148, -0.023865, -0.054201, 0.220523, 0.422110, 0.057924, -0.040379, -0.421989, 0.145359, -0.323173, -0.325355, 0.324814, 0.142192, 0.035406, 0.201783, 0.123139, 0.394810, 0.020218, -0.201474, -0.326287, -0.141642, -0.240128, -0.101127, -0.238309, -0.059088, -0.121159, 0.130940, 0.354551, 0.019460, 0.439448, -0.126924, -0.233859, -0.194340, 0.111631, -0.192026, 0.306513, 0.074516, -0.343364, 0.103357, -0.007933, 0.167000, 0.253731, -0.238625, 0.355610, 0.327524, 0.191284, 0.418723, -0.203568, -0.072715, 0.014195, -0.298296, -0.157757, 0.290977, 0.046585, -0.339832, -0.144218, -0.258615, -0.435482, 0.289384, -0.290388, -0.267651, -0.158421, -0.425170, -0.323366, 0.333790, 0.304119, -0.076752, 0.286810, -0.330649, -0.104261, -0.072643, 0.412807, -0.306223, -0.269695, -0.051666, -0.315056, -0.328345, -0.413239};
#endif

#endif
