//Numpy array shape [3, 3, 4, 8]
//Min -0.823239445686
//Max 0.682969331741
//Number of zeros 0

#ifndef W22_H_
#define W22_H_

#ifndef __SYNTHESIS__
convb1_1_weight_t w22[288];
#else
convb1_1_weight_t w22[288] = {0.005530, -0.127279, -0.036657, -0.125313, -0.023034, 0.016144, -0.102892, 0.013495, -0.025396, 0.078868, 0.029197, -0.028729, 0.004058, 0.033852, -0.012743, 0.024642, 0.014211, 0.173758, -0.009447, 0.009580, -0.120561, 0.000510, -0.023300, 0.066626, 0.047700, -0.096831, 0.273234, 0.077309, -0.038881, -0.379696, -0.017422, 0.074655, -0.043534, 0.067716, 0.230433, -0.053022, 0.183737, -0.270562, 0.080026, -0.039486, 0.048529, -0.040679, -0.035690, 0.093334, -0.113560, 0.086733, -0.119679, 0.111675, 0.042815, 0.305691, -0.175552, -0.077591, -0.123471, 0.179303, 0.054650, 0.269059, -0.034849, -0.012304, 0.398490, 0.060203, 0.255018, 0.118887, 0.100140, -0.194501, 0.046518, -0.096938, -0.020263, 0.078892, 0.027794, 0.077912, 0.038290, -0.091247, -0.004295, -0.033551, -0.049462, -0.031561, 0.008527, -0.014065, 0.046643, -0.020163, 0.015815, 0.018898, -0.096571, -0.007048, -0.099032, 0.149735, 0.100923, -0.058521, -0.021160, 0.045984, 0.076033, -0.003078, -0.000191, 0.001506, -0.002825, -0.036463, -0.018614, -0.021470, -0.061194, 0.129790, -0.084634, 0.059028, 0.095913, -0.245131, 0.140484, 0.019663, -0.084291, 0.353762, 0.038022, 0.083760, -0.114977, 0.159953, 0.044462, -0.249715, -0.094843, 0.088433, 0.053337, -0.056021, -0.322658, 0.137732, 0.801017, -0.369029, 0.127307, -0.260542, 0.072418, 0.108689, 0.300909, 0.494953, 0.202094, 0.929690, -0.134026, 1.006813, 0.171939, 0.086800, 0.421436, -0.279752, 0.182911, -0.703959, 0.724684, 0.199788, -0.348213, 0.813973, -0.820335, 0.014959, -0.008966, 0.205354, -0.089454, -0.270155, -0.198098, -0.215027, 0.157165, 0.804560, -0.286823, 0.040363, 0.132302, -0.005456, -0.966658, -0.295577, 0.106221, -0.165773, -0.261002, -0.184086, -0.100898, 0.097379, 0.064566, -0.269562, 0.145290, 0.132464, -0.006172, 0.073297, -0.156775, -0.017056, 0.092724, 0.056893, 0.070221, 0.002239, -0.081017, -0.283668, -0.169961, 0.144365, 0.159214, 0.253891, 0.017951, 0.050422, 0.046857, -0.106076, 0.027849, -0.015401, 0.048752, 0.013519, 0.061660, -0.078763, -0.057915, 0.005721, 0.038299, -0.039355, -0.028230, 0.001619, 0.054348, 0.024788, -0.187538, 0.080557, 0.020995, 0.169827, -0.024412, 0.146931, -0.098546, -0.003588, -0.094771, 0.034683, 0.001043, 0.165712, 0.073952, -0.066191, 0.080016, 0.124594, 0.096482, 0.143144, 0.023472, -0.010417, 0.008395, 0.036844, -0.007810, -0.041877, -0.035290, 0.135136, 0.023325, 0.039052, -0.063629, -0.047485, -0.026975, 0.151346, -0.272397, -0.122260, 0.082104, -0.074226, 0.139734, 0.242440, 0.174136, 0.087088, -0.051072, -0.485294, -0.107733, 0.130860, -0.023081, 0.059918, -0.034739, -0.397856, 0.017537, 0.122647, 0.016213, 0.054011, -0.067054, -0.080849, -0.008340, -0.131144, 0.048134, 0.098786, 0.053330, -0.007470, -0.066605, 0.051219, -0.100959, -0.074504, 0.023450, 0.261763, 0.024957, -0.071452, -0.088939, -0.008814, -0.089417, 0.020461, -0.052651, 0.031584, -0.029323, 0.028362, 0.065788, 0.178432, 0.101907, -0.243093, -0.043013, -0.027010, -0.029451, 0.061268, 0.033552, -0.024751, 0.055769, 0.068663};
#endif

#endif
