//Numpy array shape [3, 3, 4, 8]
//Min -0.231082469225
//Max 0.237797856331
//Number of zeros 0

#ifndef W22_H_
#define W22_H_

#ifndef __SYNTHESIS__
convb1_1_weight_t w22[288];
#else
convb1_1_weight_t w22[288] = {-0.026038, -0.329470, -0.041676, -0.298352, -0.026978, -0.274328, -0.398092, -0.138296, -0.087539, 0.080665, -0.297859, -0.034851, 0.226462, -0.365960, 0.121910, 0.099800, 0.116412, 0.295347, -0.020502, -0.328696, 0.344166, -0.368598, -0.089179, -0.013733, 0.162551, -0.386149, 0.348257, 0.297862, -0.125798, -0.134884, 0.055405, 0.281154, -0.272390, -0.204548, 0.015683, -0.175852, 0.088011, -0.275732, -0.315808, 0.162575, 0.245010, -0.328878, 0.169239, -0.016564, 0.356904, -0.019470, -0.286234, 0.308246, 0.144594, 0.072938, -0.237689, -0.268355, -0.370370, 0.244492, 0.203111, 0.309442, -0.210712, 0.066644, 0.131247, 0.290334, 0.247307, 0.297534, 0.103911, -0.013301, 0.344509, -0.373958, 0.264301, -0.233642, 0.265345, 0.029431, 0.220032, 0.084341, 0.047582, 0.084746, -0.201002, 0.088013, -0.236052, -0.005859, -0.120796, 0.288810, -0.066785, 0.070738, -0.204846, 0.303720, 0.105435, 0.203826, -0.358496, 0.048171, 0.219051, 0.219856, 0.065554, -0.246530, -0.159898, 0.040661, -0.013198, -0.140552, 0.176582, -0.329771, -0.138264, -0.046523, 0.357539, -0.175435, 0.226624, -0.254405, 0.312947, 0.183836, -0.152011, 0.270986, -0.322948, 0.271591, -0.401595, -0.038959, 0.296157, -0.377213, 0.332412, -0.045654, 0.286451, -0.008543, -0.154796, 0.124594, 0.210643, -0.222815, 0.104974, -0.205944, -0.305021, 0.387980, -0.034450, 0.091523, -0.148934, 0.154036, -0.260781, 0.147196, 0.035728, 0.320180, 0.192077, -0.146002, 0.226425, -0.257663, 0.353620, 0.102980, -0.309562, 0.377463, -0.366358, 0.069738, -0.286465, 0.182556, -0.124228, 0.026724, -0.258042, -0.071640, 0.148064, 0.298200, 0.082196, -0.118053, -0.278685, 0.193099, -0.347588, -0.017084, 0.296324, 0.105778, -0.262477, -0.321994, 0.120022, 0.150470, 0.336968, -0.041311, -0.123842, 0.052745, 0.011939, 0.060424, -0.158107, 0.334115, -0.047333, 0.194240, 0.308521, 0.078155, -0.344632, 0.070632, -0.168043, 0.189400, 0.129193, 0.236110, 0.230314, -0.039356, -0.261684, -0.137301, 0.295618, 0.202440, 0.087479, -0.350040, 0.138788, -0.110915, -0.124766, 0.080509, -0.171291, 0.170131, -0.184418, 0.277384, 0.262648, 0.241424, -0.050946, 0.239710, -0.301351, 0.317432, 0.218027, -0.287153, 0.079287, 0.311947, 0.092630, 0.220591, 0.288943, 0.334154, 0.147583, -0.063309, 0.341645, 0.242286, -0.062889, 0.378059, -0.349828, -0.085654, -0.153410, 0.240703, -0.016029, -0.073598, 0.223840, 0.241788, -0.182152, -0.076260, 0.181017, 0.311656, -0.318573, 0.261927, 0.147262, 0.087556, -0.158901, -0.060909, 0.294455, -0.201288, 0.383897, 0.184807, -0.272699, -0.211318, -0.320423, 0.070161, -0.249352, -0.107987, -0.239228, -0.204429, -0.174072, -0.208572, 0.291558, -0.012681, -0.265086, -0.308993, 0.143761, -0.144983, 0.191493, 0.026299, 0.087949, 0.087651, -0.127632, 0.141527, -0.051999, -0.205101, 0.348732, 0.340625, -0.099985, -0.211701, -0.284291, -0.188781, -0.343004, 0.121087, -0.323643, 0.307601, -0.106040, -0.244447, 0.303350, 0.025069, 0.234443, -0.254844, -0.070909, -0.257912, -0.220805, 0.181146, -0.138814, -0.356093, 0.039392, 0.001484};
#endif

#endif
