//Numpy array shape [3, 3, 4, 8]
//Min -0.231086626649
//Max 0.237815007567
//Number of zeros 0

#ifndef W22_H_
#define W22_H_

#ifndef __SYNTHESIS__
convb1_1_weight_t w22[288];
#else
convb1_1_weight_t w22[288] = {-0.026049, -0.329495, -0.041696, -0.298371, -0.026979, -0.274399, -0.398124, -0.138333, -0.087511, 0.080697, -0.297876, -0.034920, 0.226535, -0.366006, 0.121925, 0.099707, 0.116425, 0.295332, -0.020517, -0.328741, 0.344226, -0.368622, -0.089161, -0.013863, 0.162553, -0.386185, 0.348245, 0.297813, -0.125767, -0.134927, 0.055430, 0.281066, -0.272402, -0.204534, 0.015649, -0.175845, 0.087964, -0.275724, -0.315783, 0.162659, 0.244994, -0.328826, 0.169242, -0.016585, 0.356964, -0.019371, -0.286272, 0.308208, 0.144586, 0.072926, -0.237724, -0.268408, -0.370352, 0.244471, 0.203118, 0.309430, -0.210711, 0.066641, 0.131226, 0.290310, 0.247304, 0.297520, 0.103903, -0.013325, 0.344443, -0.374015, 0.264286, -0.233644, 0.265315, 0.029328, 0.219976, 0.084488, 0.047570, 0.084796, -0.200980, 0.087941, -0.236053, -0.005866, -0.120833, 0.288847, -0.066845, 0.070776, -0.204854, 0.303699, 0.105468, 0.203823, -0.358471, 0.048273, 0.219070, 0.219975, 0.065567, -0.246541, -0.159847, 0.040655, -0.013204, -0.140571, 0.176640, -0.329737, -0.138288, -0.046564, 0.357583, -0.175454, 0.226639, -0.254453, 0.312938, 0.183838, -0.152014, 0.270994, -0.322952, 0.271626, -0.401596, -0.038973, 0.296167, -0.377229, 0.332412, -0.045711, 0.286493, -0.008595, -0.154791, 0.124606, 0.210633, -0.222827, 0.104984, -0.206003, -0.304982, 0.388029, -0.034517, 0.091479, -0.148899, 0.154096, -0.260824, 0.147096, 0.035737, 0.320232, 0.192079, -0.146018, 0.226340, -0.257706, 0.353612, 0.102966, -0.309574, 0.377479, -0.366366, 0.069799, -0.286448, 0.182563, -0.124223, 0.026690, -0.258031, -0.071628, 0.148075, 0.298273, 0.082199, -0.118015, -0.278674, 0.193090, -0.347598, -0.017083, 0.296348, 0.105795, -0.262491, -0.322098, 0.120045, 0.150461, 0.337004, -0.041311, -0.123845, 0.052744, 0.011875, 0.060491, -0.158098, 0.334182, -0.047337, 0.194204, 0.308361, 0.078180, -0.344640, 0.070533, -0.168051, 0.189394, 0.129218, 0.236207, 0.230285, -0.039380, -0.261703, -0.137299, 0.295641, 0.202445, 0.087500, -0.350022, 0.138763, -0.110941, -0.124713, 0.080541, -0.171331, 0.170152, -0.184428, 0.277347, 0.262595, 0.241435, -0.050955, 0.239725, -0.301345, 0.317485, 0.218010, -0.287220, 0.079276, 0.312038, 0.092630, 0.220609, 0.288962, 0.334148, 0.147604, -0.063368, 0.341588, 0.242302, -0.062911, 0.378068, -0.349785, -0.085678, -0.153435, 0.240616, -0.016103, -0.073571, 0.223873, 0.241795, -0.182145, -0.076300, 0.181016, 0.311661, -0.318606, 0.261955, 0.147179, 0.087538, -0.158864, -0.060863, 0.294495, -0.201288, 0.383853, 0.184830, -0.272711, -0.211370, -0.320420, 0.070221, -0.249345, -0.107993, -0.239252, -0.204425, -0.174082, -0.208572, 0.291553, -0.012626, -0.265134, -0.309075, 0.143729, -0.145001, 0.191497, 0.026250, 0.087908, 0.087650, -0.127623, 0.141551, -0.051940, -0.205053, 0.348735, 0.340529, -0.100002, -0.211650, -0.284278, -0.188751, -0.343025, 0.121076, -0.323657, 0.307553, -0.106027, -0.244406, 0.303336, 0.025063, 0.234404, -0.254816, -0.070925, -0.258006, -0.220794, 0.181197, -0.138783, -0.356120, 0.039378, 0.001487};
#endif

#endif
