//Numpy array shape [3, 3, 4, 8]
//Min -0.231080025434
//Max 0.237794563174
//Number of zeros 0

#ifndef W22_H_
#define W22_H_

#ifndef __SYNTHESIS__
convb1_1_weight_t w22[288];
#else
convb1_1_weight_t w22[288] = {-0.026015, -0.329505, -0.041662, -0.298366, -0.026977, -0.274361, -0.398107, -0.138295, -0.087538, 0.080671, -0.297859, -0.034829, 0.226445, -0.365964, 0.121885, 0.099821, 0.116406, 0.295299, -0.020483, -0.328701, 0.344180, -0.368635, -0.089164, -0.013777, 0.162537, -0.386146, 0.348280, 0.297857, -0.125809, -0.134931, 0.055381, 0.281167, -0.272365, -0.204510, 0.015690, -0.175854, 0.087935, -0.275722, -0.315776, 0.162626, 0.244999, -0.328890, 0.169239, -0.016547, 0.356906, -0.019455, -0.286212, 0.308250, 0.144580, 0.072877, -0.237691, -0.268365, -0.370384, 0.244488, 0.203098, 0.309403, -0.210698, 0.066612, 0.131259, 0.290341, 0.247310, 0.297513, 0.103852, -0.013304, 0.344492, -0.373981, 0.264279, -0.233640, 0.265306, 0.029436, 0.219966, 0.084327, 0.047564, 0.084778, -0.200996, 0.088037, -0.236077, -0.005840, -0.120791, 0.288825, -0.066789, 0.070762, -0.204832, 0.303713, 0.105450, 0.203817, -0.358485, 0.048168, 0.219033, 0.219866, 0.065567, -0.246539, -0.159879, 0.040657, -0.013195, -0.140568, 0.176588, -0.329701, -0.138273, -0.046558, 0.357564, -0.175437, 0.226633, -0.254427, 0.312938, 0.183840, -0.152017, 0.270972, -0.322957, 0.271551, -0.401575, -0.038945, 0.296118, -0.377220, 0.332411, -0.045608, 0.286488, -0.008554, -0.154817, 0.124629, 0.210638, -0.222823, 0.104969, -0.205938, -0.305028, 0.387978, -0.034498, 0.091517, -0.148932, 0.154089, -0.260810, 0.147150, 0.035748, 0.320238, 0.192090, -0.146036, 0.226398, -0.257655, 0.353611, 0.102964, -0.309568, 0.377488, -0.366344, 0.069757, -0.286497, 0.182520, -0.124223, 0.026738, -0.258066, -0.071644, 0.148068, 0.298249, 0.082179, -0.118029, -0.278685, 0.193101, -0.347607, -0.017078, 0.296318, 0.105822, -0.262477, -0.322023, 0.120045, 0.150455, 0.336993, -0.041327, -0.123812, 0.052762, 0.011905, 0.060410, -0.158109, 0.334125, -0.047329, 0.194239, 0.308465, 0.078141, -0.344611, 0.070619, -0.168053, 0.189418, 0.129190, 0.236103, 0.230322, -0.039329, -0.261683, -0.137313, 0.295637, 0.202453, 0.087482, -0.350052, 0.138800, -0.110922, -0.124763, 0.080515, -0.171302, 0.170125, -0.184420, 0.277372, 0.262614, 0.241445, -0.050919, 0.239735, -0.301382, 0.317438, 0.218041, -0.287119, 0.079286, 0.311953, 0.092599, 0.220579, 0.288988, 0.334163, 0.147593, -0.063325, 0.341632, 0.242294, -0.062894, 0.378048, -0.349782, -0.085667, -0.153391, 0.240723, -0.016047, -0.073627, 0.223825, 0.241769, -0.182110, -0.076287, 0.181010, 0.311643, -0.318612, 0.261906, 0.147152, 0.087557, -0.158907, -0.060915, 0.294502, -0.201261, 0.383874, 0.184807, -0.272700, -0.211321, -0.320415, 0.070195, -0.249369, -0.107997, -0.239219, -0.204403, -0.174069, -0.208574, 0.291566, -0.012691, -0.265100, -0.309022, 0.143751, -0.144994, 0.191487, 0.026269, 0.087921, 0.087650, -0.127640, 0.141530, -0.051926, -0.205053, 0.348692, 0.340598, -0.100014, -0.211700, -0.284289, -0.188769, -0.342996, 0.121080, -0.323631, 0.307576, -0.106032, -0.244400, 0.303295, 0.025075, 0.234463, -0.254793, -0.070937, -0.257932, -0.220784, 0.181148, -0.138732, -0.356114, 0.039372, 0.001467};
#endif

#endif
