//Numpy array shape [3, 3, 8, 8]
//Min -0.210055708885
//Max 0.208655267954
//Number of zeros 0

#ifndef W26_H_
#define W26_H_

#ifndef __SYNTHESIS__
convb1_2_weight_t w26[576];
#else
convb1_2_weight_t w26[576] = {0.246144, 0.229633, 0.304036, -0.086529, 0.136647, 0.072520, 0.030919, 0.119349, -0.141463, -0.241843, 0.185552, -0.186881, 0.034542, -0.028539, 0.144192, -0.145581, -0.174491, -0.326344, -0.011803, -0.157093, -0.163222, 0.047861, 0.134261, 0.100300, 0.008586, 0.284063, 0.319644, 0.020458, -0.077386, -0.195538, -0.209205, 0.150673, -0.113823, 0.001588, 0.145935, -0.018537, 0.199561, -0.055646, -0.255569, 0.212225, -0.073808, -0.243867, -0.230504, 0.050056, 0.123101, -0.098053, -0.040439, 0.220432, -0.137575, 0.108952, 0.000486, 0.033673, 0.125978, 0.164812, -0.281047, 0.183415, 0.199300, 0.023734, 0.164110, -0.084564, 0.026249, -0.149627, 0.054772, 0.038507, -0.211251, -0.248590, 0.091768, 0.031975, 0.151602, -0.159878, 0.199744, -0.149836, -0.123988, 0.283671, 0.028793, -0.111520, 0.075142, 0.067490, -0.020469, 0.015895, 0.131653, 0.300858, -0.059120, -0.042855, 0.227680, -0.149567, 0.076767, 0.099207, 0.142156, -0.051303, -0.252666, 0.144800, 0.137572, -0.024143, 0.026273, -0.193358, -0.035234, -0.044347, -0.201061, -0.225669, 0.139536, 0.115061, -0.064557, -0.276891, 0.224629, -0.157022, -0.153402, -0.011373, -0.188255, -0.159722, -0.040118, -0.182353, -0.234806, -0.196123, -0.055290, 0.038992, 0.051837, 0.080559, 0.303049, 0.076966, -0.072320, -0.028284, -0.001606, -0.237667, -0.148742, 0.050739, 0.131940, 0.175659, -0.022932, 0.039199, 0.162273, 0.116907, -0.200590, -0.158356, 0.318737, 0.260097, 0.214882, -0.105372, -0.007704, 0.019445, -0.102488, 0.110792, 0.127860, 0.119130, -0.269537, 0.038183, -0.247583, -0.071643, -0.110393, 0.214096, -0.107649, -0.165543, 0.228870, 0.133244, -0.019296, 0.022701, 0.172009, -0.079266, 0.280904, -0.078725, 0.159396, -0.191478, -0.034239, -0.118190, 0.143012, -0.143903, -0.177609, 0.168440, 0.088938, -0.299039, -0.020307, 0.035852, 0.067938, -0.221114, -0.186765, -0.026697, -0.003545, -0.132761, -0.242274, 0.201356, -0.144396, 0.025742, -0.092008, -0.117530, 0.026891, 0.299579, 0.107596, -0.103824, 0.214920, -0.103632, -0.175029, 0.046446, 0.053815, 0.157554, 0.053174, -0.067895, 0.064158, 0.168646, -0.323443, 0.071419, -0.237352, -0.031395, 0.190644, 0.235638, -0.237700, 0.075164, -0.144519, 0.149984, -0.266444, -0.182382, -0.143848, -0.038284, -0.068180, 0.140157, 0.032798, -0.166209, -0.092491, 0.201264, -0.010213, 0.129784, -0.017777, -0.088466, -0.023762, -0.004369, 0.128918, -0.293040, 0.036722, 0.246582, -0.240731, -0.218061, 0.111466, -0.067320, -0.233808, 0.193564, -0.268801, -0.144092, 0.168665, -0.055387, -0.149793, 0.132689, -0.261696, 0.311143, 0.205372, -0.082957, -0.104771, -0.055523, -0.235093, -0.170966, -0.017583, -0.255469, 0.171277, -0.105158, 0.062314, 0.024087, -0.228591, 0.131048, -0.267130, 0.040654, 0.177411, 0.092469, -0.021079, -0.082652, -0.250459, 0.108625, 0.120924, 0.084776, -0.094700, 0.017445, 0.154865, -0.019973, -0.178293, -0.286670, 0.221202, 0.234605, 0.006902, 0.185820, -0.091473, 0.187270, -0.247416, 0.113600, -0.250770, -0.283715, 0.100899, -0.083987, 0.155080, 0.195918, -0.027008, -0.122641, -0.108910, 0.261839, 0.134835, 0.235348, -0.060926, -0.003205, 0.051304, -0.112491, 0.218901, 0.110518, 0.283619, -0.059342, -0.088166, 0.207205, 0.183273, 0.126566, -0.012925, -0.138615, -0.136509, 0.205949, -0.148331, -0.218461, -0.159058, -0.184756, 0.053438, 0.064364, -0.303131, 0.053265, -0.070348, 0.150651, -0.028518, -0.285618, 0.274672, -0.183104, -0.183758, -0.258209, 0.079019, -0.040823, 0.245554, 0.264733, 0.118872, -0.119005, 0.161573, 0.068230, 0.126739, 0.190147, 0.224298, -0.110013, 0.183133, -0.026962, 0.254379, -0.156415, -0.061767, 0.093617, -0.117462, 0.237429, 0.064984, 0.285955, -0.182046, 0.081469, 0.080449, 0.126115, -0.301573, 0.060750, 0.101870, 0.053169, 0.249691, -0.044525, -0.229577, 0.032449, 0.167948, 0.009467, 0.041434, 0.182579, -0.226209, -0.220442, 0.064117, 0.161364, -0.127716, 0.063589, -0.199039, -0.194996, 0.252440, 0.017979, -0.128802, 0.123613, 0.142304, -0.157534, -0.029493, 0.002644, -0.066974, 0.154770, 0.233123, 0.204817, 0.227290, -0.158518, 0.063133, 0.206566, -0.124448, 0.195833, 0.144019, 0.063052, 0.150859, 0.265652, 0.226675, 0.112885, -0.054255, -0.006219, 0.162739, 0.159935, -0.009652, 0.094479, -0.071407, -0.217182, -0.067513, -0.100982, -0.210514, -0.001731, -0.328908, 0.029531, -0.148506, 0.071065, -0.032877, -0.235734, 0.211487, -0.008899, -0.266180, -0.078061, 0.011053, 0.113096, -0.212207, -0.028541, 0.080995, -0.000593, -0.223851, -0.100316, 0.158583, -0.163711, -0.023536, -0.049336, 0.245318, -0.090547, 0.310845, -0.020161, 0.034702, -0.085284, 0.133023, -0.010121, -0.069861, 0.194106, -0.015212, -0.245386, -0.256652, 0.033225, 0.211166, -0.182369, -0.026672, 0.208536, 0.265455, 0.129702, 0.008029, -0.020082, 0.007083, 0.169407, -0.128521, -0.071777, 0.147021, 0.247198, 0.210706, -0.208936, 0.078344, 0.001297, -0.175475, -0.167797, -0.147773, -0.234739, -0.047177, -0.114373, -0.070823, 0.044515, 0.254051, 0.214320, -0.232661, 0.197222, -0.138278, -0.275273, 0.085864, -0.170763, 0.145023, 0.087004, 0.116333, 0.088113, 0.059260, 0.307746, -0.085972, -0.075034, -0.157837, 0.193297, 0.032467, -0.066523, 0.119101, -0.147337, 0.192923, -0.009617, 0.245993, -0.016223, 0.197286, -0.116520, -0.200225, 0.079546, 0.050659, -0.010103, 0.094700, -0.038030, 0.285228, 0.007227, 0.141831, -0.269782, -0.261301, -0.217073, 0.079543, 0.156471, 0.169669, 0.078897, 0.229335, 0.164890, 0.141015, 0.026581, -0.227022, -0.024823, 0.062468, 0.230690, 0.232584, -0.151178, 0.013445, -0.196768, -0.078947, -0.163622, -0.065615, 0.100172, -0.010141, 0.312229, 0.214899, 0.202796, -0.004181, 0.221016, -0.317213, -0.008449, 0.211439, -0.062478, 0.114859, -0.051291, -0.054864, 0.048146, 0.233145, 0.162142, 0.162402, 0.019683, -0.092223, -0.009627, 0.109916, 0.204537, -0.304189, -0.089375, 0.001859, 0.201804, -0.145713, 0.122158, 0.244480, 0.042971, -0.271937, -0.242857, 0.004641, 0.090581, 0.107867, -0.194941, -0.054578, -0.097033, -0.228741, -0.252501, 0.068061, -0.192617, -0.016495, -0.258121, -0.049669, -0.100621, -0.156481, 0.058880};
#endif

#endif
