//Numpy array shape [3, 3, 8, 8]
//Min -0.210065543652
//Max 0.208672225475
//Number of zeros 0

#ifndef W26_H_
#define W26_H_

#ifndef __SYNTHESIS__
convb1_2_weight_t w26[576];
#else
convb1_2_weight_t w26[576] = {0.246153, 0.229616, 0.304065, -0.086509, 0.136643, 0.072534, 0.030967, 0.119350, -0.141463, -0.241892, 0.185547, -0.186860, 0.034587, -0.028524, 0.144200, -0.145556, -0.174535, -0.326352, -0.011816, -0.157062, -0.163224, 0.047866, 0.134312, 0.100273, 0.008601, 0.284066, 0.319549, 0.020464, -0.077373, -0.195533, -0.209211, 0.150679, -0.113769, 0.001582, 0.145979, -0.018515, 0.199561, -0.055643, -0.255573, 0.212228, -0.073810, -0.243806, -0.230527, 0.050082, 0.123088, -0.098050, -0.040458, 0.220440, -0.137561, 0.108935, 0.000442, 0.033659, 0.126024, 0.164819, -0.281082, 0.183426, 0.199367, 0.023726, 0.164093, -0.084575, 0.026237, -0.149615, 0.054831, 0.038511, -0.211220, -0.248583, 0.091748, 0.031974, 0.151595, -0.159875, 0.199817, -0.149813, -0.123960, 0.283624, 0.028804, -0.111517, 0.075135, 0.067487, -0.020489, 0.015920, 0.131654, 0.300818, -0.059097, -0.042864, 0.227648, -0.149563, 0.076795, 0.099204, 0.142130, -0.051412, -0.252733, 0.144796, 0.137485, -0.024186, 0.026316, -0.193295, -0.035220, -0.044367, -0.201019, -0.225651, 0.139525, 0.115058, -0.064521, -0.276874, 0.224643, -0.157014, -0.153551, -0.011363, -0.188228, -0.159710, -0.040213, -0.182333, -0.234841, -0.196165, -0.055249, 0.038971, 0.051769, 0.080515, 0.303078, 0.076999, -0.072267, -0.028300, -0.001646, -0.237674, -0.148759, 0.050733, 0.131973, 0.175668, -0.022934, 0.039159, 0.162212, 0.116901, -0.200604, -0.158368, 0.318912, 0.260088, 0.214925, -0.105362, -0.007641, 0.019434, -0.102499, 0.110795, 0.127825, 0.119124, -0.269486, 0.038150, -0.247546, -0.071590, -0.110391, 0.214088, -0.107570, -0.165519, 0.228834, 0.133101, -0.019302, 0.022718, 0.171998, -0.079257, 0.280899, -0.078665, 0.159410, -0.191487, -0.034122, -0.118152, 0.143054, -0.143863, -0.177615, 0.168452, 0.088933, -0.299187, -0.020444, 0.035848, 0.067928, -0.221183, -0.186646, -0.026673, -0.003554, -0.132788, -0.242241, 0.201370, -0.144402, 0.025762, -0.092030, -0.117514, 0.026937, 0.299483, 0.107604, -0.103791, 0.214863, -0.103626, -0.175015, 0.046460, 0.053822, 0.157540, 0.053136, -0.067916, 0.064180, 0.168663, -0.323413, 0.071417, -0.237326, -0.031389, 0.190659, 0.235651, -0.237671, 0.075168, -0.144507, 0.149988, -0.266442, -0.182370, -0.143826, -0.038298, -0.068173, 0.140156, 0.032839, -0.166229, -0.092538, 0.201147, -0.010199, 0.129806, -0.017778, -0.088466, -0.023754, -0.004387, 0.128933, -0.293028, 0.036730, 0.246604, -0.240748, -0.218053, 0.111460, -0.067344, -0.233846, 0.193530, -0.268882, -0.144086, 0.168686, -0.055392, -0.149807, 0.132693, -0.261693, 0.311114, 0.205415, -0.082959, -0.104752, -0.055530, -0.235118, -0.170928, -0.017603, -0.255482, 0.171225, -0.105163, 0.062319, 0.024081, -0.228583, 0.131059, -0.267140, 0.040603, 0.177367, 0.092464, -0.021088, -0.082655, -0.250445, 0.108668, 0.120977, 0.084771, -0.094698, 0.017447, 0.154886, -0.019967, -0.178321, -0.286662, 0.221186, 0.234580, 0.006918, 0.185803, -0.091496, 0.187259, -0.247417, 0.113564, -0.250765, -0.283771, 0.100912, -0.083981, 0.155088, 0.195921, -0.027026, -0.122572, -0.108908, 0.261876, 0.134815, 0.235336, -0.060938, -0.003208, 0.051255, -0.112491, 0.218843, 0.110446, 0.283647, -0.059313, -0.088189, 0.207212, 0.183278, 0.126569, -0.012932, -0.138643, -0.136520, 0.205946, -0.148312, -0.218453, -0.159097, -0.184801, 0.053425, 0.064265, -0.303168, 0.053261, -0.070349, 0.150650, -0.028507, -0.285547, 0.274642, -0.183245, -0.183735, -0.258205, 0.079025, -0.040815, 0.245569, 0.264741, 0.118890, -0.119010, 0.161616, 0.068246, 0.126732, 0.190129, 0.224295, -0.110016, 0.183141, -0.026979, 0.254393, -0.156421, -0.061767, 0.093611, -0.117442, 0.237407, 0.065019, 0.285951, -0.182012, 0.081461, 0.080431, 0.126082, -0.301704, 0.060774, 0.101887, 0.053134, 0.249705, -0.044513, -0.229580, 0.032447, 0.167944, 0.009485, 0.041472, 0.182530, -0.226182, -0.220438, 0.064097, 0.161367, -0.127729, 0.063675, -0.199018, -0.194986, 0.252518, 0.017994, -0.128812, 0.123571, 0.142224, -0.157536, -0.029432, 0.002600, -0.066985, 0.154767, 0.233123, 0.204797, 0.227279, -0.158434, 0.063116, 0.206536, -0.124471, 0.195837, 0.144054, 0.063062, 0.150877, 0.265636, 0.226706, 0.112856, -0.054262, -0.006237, 0.162723, 0.159917, -0.009641, 0.094466, -0.071436, -0.217174, -0.067474, -0.100969, -0.210509, -0.001716, -0.328922, 0.029531, -0.148409, 0.071054, -0.032856, -0.235712, 0.211509, -0.008887, -0.266199, -0.078012, 0.011019, 0.113084, -0.212247, -0.028528, 0.081019, -0.000581, -0.223865, -0.100291, 0.158596, -0.163760, -0.023515, -0.049339, 0.245323, -0.090535, 0.310860, -0.020156, 0.034737, -0.085292, 0.133017, -0.010112, -0.069843, 0.194107, -0.015224, -0.245422, -0.256667, 0.033191, 0.211178, -0.182365, -0.026664, 0.208534, 0.265478, 0.129705, 0.008028, -0.020133, 0.007096, 0.169409, -0.128513, -0.071770, 0.147036, 0.247242, 0.210773, -0.208931, 0.078349, 0.001286, -0.175446, -0.167784, -0.147874, -0.234726, -0.047175, -0.114416, -0.070786, 0.044548, 0.254072, 0.214331, -0.232673, 0.197219, -0.138259, -0.275273, 0.085894, -0.170793, 0.145011, 0.086995, 0.116268, 0.088097, 0.059226, 0.307688, -0.086008, -0.075028, -0.157850, 0.193291, 0.032483, -0.066528, 0.119109, -0.147344, 0.192961, -0.009598, 0.246009, -0.016225, 0.196939, -0.116509, -0.200210, 0.079536, 0.050682, -0.010114, 0.094722, -0.038032, 0.285208, 0.007211, 0.141845, -0.269808, -0.261270, -0.217063, 0.079547, 0.156479, 0.169656, 0.078906, 0.229367, 0.164865, 0.141051, 0.026591, -0.227028, -0.024818, 0.062455, 0.230696, 0.232581, -0.151164, 0.013412, -0.196758, -0.078950, -0.163631, -0.065626, 0.100139, -0.010177, 0.312223, 0.214910, 0.202813, -0.004185, 0.220991, -0.317239, -0.008436, 0.211428, -0.062487, 0.114862, -0.051311, -0.054889, 0.048118, 0.233151, 0.162061, 0.162345, 0.019610, -0.092182, -0.009609, 0.109917, 0.204537, -0.304214, -0.089362, 0.001912, 0.201806, -0.145663, 0.122174, 0.244506, 0.042955, -0.271994, -0.242792, 0.004621, 0.090561, 0.107859, -0.194959, -0.054564, -0.097040, -0.228796, -0.252502, 0.068073, -0.192634, -0.016466, -0.258122, -0.049713, -0.100650, -0.156548, 0.058854};
#endif

#endif
