//Numpy array shape [3, 3, 4, 4]
//Min -0.286591440439
//Max 0.294243305922
//Number of zeros 0

#ifndef W38_H_
#define W38_H_

#ifndef __SYNTHESIS__
convu1_2_weight_t w38[144];
#else
convu1_2_weight_t w38[144] = {0.304098, 0.231104, -0.003805, -0.169200, -0.222267, -0.386288, 0.099378, -0.045789, -0.045284, 0.431695, 0.094212, -0.301931, 0.218910, -0.131189, -0.174906, -0.195103, 0.009467, -0.197813, 0.187833, -0.068887, 0.297468, 0.442227, -0.193834, 0.322172, -0.268731, -0.389117, 0.027457, 0.285633, -0.360606, 0.307482, 0.130224, 0.043164, 0.378549, 0.307210, -0.059101, 0.362670, 0.100766, -0.114751, 0.228590, 0.336163, -0.272537, 0.003026, 0.272602, -0.102054, -0.359626, -0.226774, 0.085397, 0.136592, 0.322870, 0.371349, 0.201864, -0.020640, 0.067136, 0.310409, -0.043714, 0.362056, -0.075296, -0.235455, -0.281452, -0.062345, 0.078778, -0.067454, 0.264825, 0.334819, -0.013348, 0.331889, 0.003852, 0.047912, 0.084097, 0.294356, -0.178618, -0.283848, 0.259921, -0.335008, 0.162673, 0.052970, -0.274731, 0.248669, 0.029567, 0.172921, 0.257057, 0.013185, 0.002500, -0.068147, 0.344118, -0.261888, -0.008641, 0.094007, -0.066615, 0.010641, 0.179107, -0.051290, 0.001333, -0.277546, -0.291688, -0.060872, -0.345813, -0.272366, -0.165415, 0.322885, -0.368380, -0.008100, 0.227518, -0.188957, -0.178015, -0.044611, 0.195727, 0.175602, 0.261426, 0.209213, 0.143854, 0.393904, -0.006248, -0.243753, 0.228981, 0.224350, 0.102984, -0.450979, -0.126980, -0.277674, -0.316928, -0.086814, 0.282089, 0.079309, 0.401780, 0.148883, 0.219063, 0.008916, -0.264818, 0.278780, 0.160033, 0.146030, -0.335182, -0.117573, -0.226300, 0.030083, -0.202109, 0.454170, 0.071253, -0.226815, -0.416299, -0.059544, -0.266402, -0.080221};
#endif

#endif
