//Numpy array shape [3, 3, 4, 4]
//Min -0.286591827869
//Max 0.294243097305
//Number of zeros 0

#ifndef W38_H_
#define W38_H_

#ifndef __SYNTHESIS__
convu1_2_weight_t w38[144];
#else
convu1_2_weight_t w38[144] = {0.304100, 0.231092, -0.003804, -0.169201, -0.222266, -0.386294, 0.099368, -0.045790, -0.045285, 0.431685, 0.094201, -0.301930, 0.218892, -0.131185, -0.174879, -0.195103, 0.009468, -0.197823, 0.187808, -0.068889, 0.297470, 0.442234, -0.193808, 0.322172, -0.268731, -0.389134, 0.027451, 0.285623, -0.360605, 0.307487, 0.130212, 0.043162, 0.378551, 0.307211, -0.059101, 0.362665, 0.100768, -0.114757, 0.228564, 0.336163, -0.272536, 0.003019, 0.272568, -0.102063, -0.359626, -0.226778, 0.085390, 0.136588, 0.322873, 0.371350, 0.201835, -0.020641, 0.067137, 0.310415, -0.043709, 0.362054, -0.075294, -0.235470, -0.281406, -0.062345, 0.078774, -0.067432, 0.264793, 0.334822, -0.013347, 0.331894, 0.003848, 0.047910, 0.084099, 0.294364, -0.178597, -0.283849, 0.259923, -0.335017, 0.162653, 0.052969, -0.274731, 0.248673, 0.029565, 0.172919, 0.257061, 0.013185, 0.002500, -0.068149, 0.344121, -0.261896, -0.008642, 0.094005, -0.066614, 0.010637, 0.179080, -0.051288, 0.001330, -0.277556, -0.291647, -0.060868, -0.345810, -0.272372, -0.165400, 0.322884, -0.368378, -0.008106, 0.227486, -0.188954, -0.178013, -0.044613, 0.195693, 0.175594, 0.261431, 0.209259, 0.143835, 0.393902, -0.006247, -0.243756, 0.228954, 0.224352, 0.102985, -0.450985, -0.126964, -0.277672, -0.316925, -0.086817, 0.282054, 0.079305, 0.401783, 0.148889, 0.219035, 0.008909, -0.264814, 0.278781, 0.160008, 0.146029, -0.335180, -0.117576, -0.226271, 0.030085, -0.202107, 0.454176, 0.071238, -0.226817, -0.416300, -0.059542, -0.266364, -0.080224};
#endif

#endif
