//Numpy array shape [3, 3, 4, 4]
//Min -0.286583065987
//Max 0.294238090515
//Number of zeros 0

#ifndef W38_H_
#define W38_H_

#ifndef __SYNTHESIS__
convu1_2_weight_t w38[144];
#else
convu1_2_weight_t w38[144] = {0.304099, 0.231088, -0.003801, -0.169189, -0.222268, -0.386295, 0.099411, -0.045776, -0.045287, 0.431679, 0.094215, -0.301915, 0.218893, -0.131178, -0.174867, -0.195090, 0.009462, -0.197810, 0.187821, -0.068883, 0.297465, 0.442229, -0.193812, 0.322184, -0.268733, -0.389131, 0.027456, 0.285637, -0.360615, 0.307485, 0.130223, 0.043172, 0.378549, 0.307217, -0.059062, 0.362666, 0.100764, -0.114755, 0.228577, 0.336163, -0.272538, 0.003019, 0.272600, -0.102043, -0.359624, -0.226759, 0.085392, 0.136569, 0.322872, 0.371351, 0.201854, -0.020640, 0.067136, 0.310410, -0.043682, 0.362060, -0.075296, -0.235469, -0.281424, -0.062335, 0.078780, -0.067374, 0.264818, 0.334823, -0.013347, 0.331898, 0.003852, 0.047909, 0.084097, 0.294359, -0.178589, -0.283829, 0.259920, -0.335012, 0.162659, 0.052977, -0.274709, 0.248671, 0.029581, 0.172925, 0.257058, 0.013193, 0.002503, -0.068148, 0.344116, -0.261896, -0.008630, 0.094012, -0.066617, 0.010644, 0.179086, -0.051282, 0.001327, -0.277536, -0.291654, -0.060868, -0.345816, -0.272369, -0.165413, 0.322857, -0.368379, -0.008095, 0.227517, -0.188948, -0.178017, -0.044613, 0.195705, 0.175599, 0.261433, 0.209375, 0.143842, 0.393887, -0.006250, -0.243752, 0.228977, 0.224339, 0.102986, -0.450974, -0.126935, -0.277656, -0.316924, -0.086816, 0.282076, 0.079310, 0.401797, 0.148894, 0.219061, 0.008904, -0.264824, 0.278791, 0.160012, 0.146025, -0.335180, -0.117569, -0.226256, 0.030101, -0.202113, 0.454177, 0.071248, -0.226803, -0.416287, -0.059540, -0.266381, -0.080196};
#endif

#endif
