//Numpy array shape [3, 3, 4, 4]
//Min -0.381240069866
//Max 0.425441026688
//Number of zeros 0

#ifndef W14_H_
#define W14_H_

#ifndef __SYNTHESIS__
pool3_weight_t w14[144];
#else
pool3_weight_t w14[144] = {-0.030433345586, 0.020167898387, 0.360753268003, 0.120574437082, -0.346291184425, -0.262240171432, 0.288857281208, 0.126116454601, 0.087640129030, -0.120630703866, 0.549498379230, 0.105012603104, 0.098280102015, -0.020369144157, -0.274853706360, -0.163465619087, -0.084264785051, 0.026451813057, 0.045249253511, -0.173808798194, 0.043464157730, -0.141971349716, 0.341989308596, -0.439326256514, -0.101969890296, -0.257150202990, 0.151479512453, 0.101707533002, 0.102496184409, 0.012551864609, 0.040758308023, 0.072695001960, -0.051748998463, -0.040229696780, 0.309543579817, -0.166074886918, 0.119981028140, 0.209496662021, -0.042637299746, -0.025881351903, -0.140753924847, -0.014051792212, -0.321067363024, 0.036268129945, 0.045866683125, -0.167564123869, 0.112647399306, -0.025432579219, 0.032073218375, -0.005576368421, 0.082212030888, 0.070490799844, -0.171682491899, 0.033676959574, 0.392572194338, -0.003838450881, -0.157008185983, -0.213185101748, 0.494274675846, 0.088109217584, 0.064480058849, 0.061207905412, -0.190315693617, 0.057918269187, 0.193967089057, 0.105644337833, 0.023394312710, -0.311701446772, -0.152510762215, -0.113686807454, 0.394308567047, -0.334320336580, -0.132610991597, -0.305998533964, 0.162690117955, -0.290682762861, 0.314862310886, 0.323963195086, 0.168266177177, -0.053214065731, 0.010796749033, 0.104048721492, 0.320826292038, 0.115763820708, -0.066585794091, -0.307745695114, 0.027570795268, -0.125409260392, -0.059782914817, -0.018460018560, -0.052904494107, -0.120785869658, -0.370321094990, 0.381210654974, 0.014367467724, 0.242364659905, 0.007559113670, -0.000202158102, -0.082877613604, 0.066600434482, -0.094360783696, -0.022731259465, -0.214581266046, 0.064272381365, -0.063943497837, 0.019205393270, 0.277373313904, -0.090960651636, 0.051015794277, -0.023803189397, 0.143884837627, 0.099639751017, 0.181813850999, -0.123041085899, 0.084063880146, -0.150609552860, -0.084143280983, 0.032156303525, 0.259858101606, -0.056096680462, -0.166421324015, 0.081172659993, 0.009897182696, -0.124761246145, 0.377710729837, -0.245589345694, -0.171134516597, -0.071868650615, 0.053665522486, -0.034922841936, 0.317823231220, 0.307982414961, -0.118544250727, 0.127151444554, 0.040730502456, -0.179657503963, -0.026071455330, -0.000325287168, -0.097988329828, -0.057868815958, 0.059625830501, -0.127753093839, -0.254843086004, 0.405653655529};
#endif

#endif
