//Numpy array shape [3, 3, 8, 8]
//Min -0.471504420042
//Max 0.702443778515
//Number of zeros 0

#ifndef W26_H_
#define W26_H_

#ifndef __SYNTHESIS__
convb1_2_weight_t w26[576];
#else
convb1_2_weight_t w26[576] = {0.125684499741, -0.000291990786, 0.038505233824, -0.108766160905, 0.096678949893, 0.089006699622, -0.024950457737, -0.045434091240, -0.109299041331, -0.009502820671, 0.017055373639, -0.101102881134, 0.024781772867, 0.007732997183, -0.006672293413, 0.010957135819, -0.049745723605, -0.122525148094, -0.089303649962, 0.076673932374, -0.310539722443, 0.025459224358, 0.044868934900, 0.007456485182, -0.017151400447, 0.277300447226, 0.181989476085, -0.107738204300, -0.132758885622, -0.072016075253, 0.002885030350, -0.097592778504, -0.044741682708, -0.094234026968, 0.148698732257, 0.031801823527, 0.152766019106, -0.075630225241, 0.131061643362, -0.057352755219, -0.091327220201, -0.096938937902, -0.053247082978, 0.229423001409, 0.221109420061, -0.064608447254, 0.002039434854, 0.061246268451, -0.152373611927, 0.062079943717, 0.163117572665, 0.030518695712, 0.065236017108, 0.105760224164, -0.087257280946, 0.040029406548, 0.219175398350, -0.044563971460, 0.023490246385, 0.051054030657, -0.067568913102, -0.084857486188, 0.036881398410, 0.100688673556, -0.090661734343, 0.116225257516, 0.015584886074, -0.249650508165, -0.021258108318, -0.095546849072, 0.141078606248, -0.163183599710, -0.151482626796, 0.245861142874, 0.131816640496, -0.068510942161, 0.058512970805, -0.051439780742, 0.036469995975, -0.057898379862, -0.015905534849, 0.015407970175, -0.120388597250, -0.129695877433, 0.119897365570, 0.114681757987, -0.071444019675, -0.025705950335, 0.162728130817, 0.282214790583, 0.117424286902, 0.101781435311, 0.119580157101, -0.045809753239, 0.047947026789, -0.175140306354, -0.242568120360, -0.013877226040, 0.096586950123, 0.100565165281, 0.062618359923, -0.017501816154, -0.084657981992, -0.122271828353, 0.100783459842, -0.028895042837, 0.023067006841, -0.010517660528, -0.272506475449, -0.035878363997, -0.066949017346, -0.137112125754, -0.087209545076, -0.015945686027, 0.277945220470, 0.280179798603, 0.054910648614, 0.060890372843, -0.034130483866, 0.060651637614, -0.100297220051, -0.155122727156, -0.030235845596, -0.194671288133, -0.189998552203, 0.223698928952, -0.048940643668, 0.019252793863, 0.021031660959, 0.195267662406, -0.037537708879, 0.047421522439, -0.200950220227, -0.113901890814, 0.026502888650, 0.107505217195, 0.100251711905, 0.063377425075, -0.037652365863, -0.052008066326, 0.002305584028, 0.094446055591, -0.083496436477, -0.032269179821, -0.105242319405, 0.012026035227, -0.072398558259, -0.080171018839, -0.253733277321, -0.043095465750, 0.022297609597, -0.033704932779, 0.149169221520, 0.072451509535, -0.013524922542, -0.002513724845, 0.110596247017, -0.038810368627, -0.010179232806, -0.027954149991, 0.080947987735, 0.008861726150, -0.107058718801, -0.224095374346, 0.155058994889, 0.009355708957, -0.044568706304, 0.095073960721, 0.094675354660, -0.086955033243, 0.069448299706, 0.111716777086, -0.032371368259, -0.070160411298, 0.009197453968, -0.048052575439, -0.021721240133, -0.180020660162, 0.018975937739, 0.074613139033, -0.181910976768, 0.086502633989, -0.065208896995, -0.060738105327, 0.086213566363, 0.122127011418, -0.012841224670, -0.032858204097, 0.167360678315, -0.028227381408, 0.000893789169, -0.019137689844, 0.199178352952, 0.009796911851, 0.026606176049, 0.114986017346, 0.039519306272, 0.125354871154, -0.077111095190, 0.001486973488, -0.234402984381, 0.027619196102, 0.043545037508, 0.072248868644, -0.035722929984, 0.096263252199, -0.019999258220, 0.075050100684, -0.278055429459, 0.023613246158, -0.389245212078, -0.257626563311, -0.036529749632, 0.011704302393, 0.117839597166, 0.022593211383, -0.030656950548, 0.225964590907, 0.005664217751, -0.021301297471, -0.209746867418, -0.090906545520, -0.038823511451, 0.035365745425, -0.047280535102, 0.015596976504, -0.068148456514, 0.258125811815, -0.136397451162, 0.005856898148, 0.096243739128, 0.013212422840, -0.168494805694, 0.112858913839, 0.002274057129, -0.198386490345, 0.228688523173, -0.072578631341, -0.028037223965, -0.010842201300, -0.109015233815, 0.126987501979, -0.033984392881, -0.054155077785, 0.022933846340, 0.143812417984, -0.072741597891, 0.004824332427, -0.009402758442, -0.244958773255, 0.143581926823, -0.201832666993, 0.046635709703, 0.131173983216, -0.169559359550, -0.086088985205, -0.297122299671, -0.203172564507, 0.072950072587, -0.177547365427, -0.147953569889, 0.004293271806, -0.272263854742, -0.397227555513, -0.111073561013, -0.030183868483, 0.010495799594, -0.166926875710, 0.493491113186, -0.067876540124, 0.019868820906, -0.279024124146, 0.809814751148, 0.660142838955, 0.084233164787, -0.077101305127, -0.295552939177, 0.209912776947, -0.428484499454, 0.017311243340, -0.158576026559, -0.116443447769, 0.165959477425, -0.365345686674, 0.059386488050, 0.490239560604, 0.241342782974, -0.125415146351, -0.145368680358, 0.176034122705, -0.083620466292, 0.035654529929, -0.201930269599, -0.099062673748, 0.005321602337, -0.205362141132, 0.167976975441, -0.012939076871, 0.101285837591, -0.292505264282, -0.101026117802, 0.467038989067, -0.109478123486, 0.029422661290, -0.117166914046, 0.234740123153, -0.151835352182, -0.203753426671, -0.230899333954, -0.267796158791, 0.099559888244, -0.258832663298, 0.050473447889, 0.151096150279, -0.157611101866, -0.046594858170, -0.126790151000, 0.072785466909, -0.345584511757, -0.222385108471, 0.267274171114, 0.176404774189, -0.037192821503, -0.059616975486, 0.012941963971, -0.028442064300, 0.247702911496, 0.114224486053, -0.004246955737, -0.054104831070, 0.046996481717, 0.047436755151, 0.082715339959, 0.110899254680, -0.218651175499, -0.126068577170, 0.094173505902, 0.010489855893, 0.088605470955, 0.075692139566, 0.182562530041, 0.061650380492, 0.099405594170, 0.154522463679, 0.169291660190, 0.087707102299, -0.132567018270, -0.011481312104, -0.067412033677, 0.122972406447, -0.206461310387, -0.142290249467, -0.321450710297, 0.082360930741, 0.042499952018, -0.195024728775, -0.244854837656, -0.081531845033, 0.028528194875, -0.099916003644, 0.071259938180, 0.089684285223, 0.036169406027, 0.022703532130, -0.082470178604, 0.027448263019, 0.191158860922, 0.099308535457, -0.002438005060, 0.153503417969, 0.040729969740, 0.043102532625, -0.240969017148, 0.075665228069, 0.055298555642, 0.066774472594, 0.015594714321, 0.031438861042, -0.030407566577, -0.079556129873, 0.210279226303, 0.100406065583, -0.154210403562, -0.087100677192, 0.078956298530, 0.041318286210, 0.004340760875, 0.030007915571, 0.095969326794, 0.014139306732, -0.084410578012, 0.012363444082, 0.024943631142, 0.046419978142, -0.010380760767, -0.070553384721, 0.355484068394, -0.001379104913, -0.013550711796, 0.069431565702, 0.049313731492, -0.173399612308, 0.016773428768, -0.070684917271, -0.327545046806, -0.093799300492, 0.163500770926, 0.011403759010, -0.070408217609, -0.007358046714, 0.051309544593, -0.125786915421, -0.137269958854, -0.087661683559, 0.006328344345, -0.118679754436, 0.090183541179, -0.132324963808, 0.002440324519, 0.038095142692, -0.186827674508, -0.023409040645, 0.001889944542, -0.056536119431, -0.011831969023, -0.034623388201, -0.038361132145, -0.035404868424, 0.202444940805, 0.013100822456, -0.014131200500, 0.013915401883, -0.047299545258, -0.016257546842, 0.067190840840, -0.106538452208, -0.127889588475, -0.036385659128, -0.024586237967, 0.049480646849, -0.041694164276, -0.039652034640, 0.043362248689, -0.067954510450, -0.180094897747, 0.082190841436, -0.003481159220, 0.143363818526, 0.079454228282, 0.048582296818, 0.044205788523, -0.009417935275, -0.293093562126, -0.069845937192, 0.057756930590, 0.111500464380, -0.008223500103, -0.048070561141, -0.022480174899, 0.007707020268, 0.351054191589, -0.081642501056, -0.237824991345, -0.101901158690, -0.108846955001, 0.001870798413, 0.009327172302, -0.047687422484, -0.067925065756, 0.069268964231, -0.101202137768, 0.010769070126, 0.004584080074, 0.035346057266, 0.037511385977, -0.079988613725, -0.115942291915, 0.061585780233, 0.073395647109, 0.271990537643, -0.093639954925, 0.128341913223, 0.008703927509, -0.139302134514, -0.346068054438, -0.024655805901, 0.076042063534, 0.005318637006, 0.200809404254, -0.035056132823, 0.051000311971, 0.016001485288, 0.260768949986, 0.027597291395, -0.161765635014, 0.021985365078, -0.003219883889, 0.104178078473, -0.071839019656, 0.130043253303, 0.210257038474, -0.086127512157, 0.109217822552, 0.087620899081, 0.179766148329, -0.146636620164, 0.017201805487, 0.040911227465, 0.038955021650, 0.139360100031, -0.217410191894, -0.080304346979, 0.015248366632, 0.013469879515, -0.009400803596, 0.044641766697, -0.220785632730, 0.029854808003, 0.085634790361, 0.096322558820, -0.044423609972, -0.213219374418, 0.020493140444, 0.066897921264, 0.160378038883, -0.030642818660, -0.274501234293, -0.117140047252, 0.188179671764, 0.032876975834, -0.046030391008, 0.049788516015, -0.026796314865, -0.006971467286, 0.052872877568, 0.055122278631, 0.186367988586, 0.044344011694, 0.053611367941, -0.013010472059, -0.119376786053, 0.010579675436, 0.005730271339, 0.031806915998, 0.037098716944, 0.002630417002, -0.052928093821, 0.075210250914, -0.030717259273, 0.023564150557, -0.041980434209, 0.037691019475, 0.071153327823, -0.111024536192, 0.018628943712, -0.022416027263, 0.072850711644, 0.020678114146, -0.013321083039, -0.023405630141, 0.018911140040, -0.107173919678, -0.067667916417, 0.042183559388, 0.227667316794, -0.015976320952, -0.076274372637, -0.003932801541, 0.026759013534, -0.065791890025, 0.068459369242, -0.056956518441, -0.174785897136, -0.049071528018, -0.058947216719, -0.105758167803};
#endif

#endif
