//Numpy array shape [3, 3, 8, 4]
//Min -0.551957428455
//Max 0.376743584871
//Number of zeros 0

#ifndef W31_H_
#define W31_H_

#ifndef __SYNTHESIS__
convu1_1_weight_t w31[288];
#else
convu1_1_weight_t w31[288] = {0.184134811163, -0.157299935818, 0.026540299878, 0.080697670579, -0.119407176971, 0.148651689291, 0.176497191191, -0.081811182201, -0.042386829853, -0.097541466355, -0.089579679072, -0.057545475662, 0.070812769234, -0.010106045753, -0.218326017261, 0.001330349362, -0.000669383211, -0.032945495099, 0.078361302614, -0.051514878869, -0.081095106900, -0.071620039642, 0.092232406139, 0.085354931653, 0.199736058712, 0.328504443169, 0.140686675906, -0.330736160278, -0.261548668146, 0.215541884303, -0.001720159664, -0.040548294783, 0.023971237242, 0.222018271685, 0.032413642853, -0.020435975865, 0.071043714881, -0.133775576949, -0.077560648322, 0.055850546807, 0.120999723673, 0.039242278785, -0.114115774632, 0.081736013293, 0.140528991818, -0.283673673868, 0.193473950028, 0.128996670246, 0.181570515037, 0.076079197228, 0.131139442325, 0.056312069297, 0.051326189190, -0.037694562227, 0.088325135410, -0.053333550692, 0.313066184521, 0.127704530954, 0.240617066622, -0.140078797936, -0.234033480287, -0.151538252831, -0.147771462798, 0.021414887160, -0.145284369588, -0.079069979489, 0.006458794698, -0.081399142742, 0.126594051719, 0.137752026320, 0.095326244831, 0.011885615997, -0.333111524582, 0.026228377596, 0.072587937117, -0.117950201035, 0.187224805355, 0.060262735933, -0.117587365210, -0.050068311393, 0.000642999483, -0.023543102667, -0.035566560924, 0.049763090909, 0.181064888835, 0.026913952082, -0.075402416289, 0.101453594863, -0.414202123880, -0.108497649431, -0.035287469625, -0.179304406047, -0.092086486518, 0.031216938049, -0.079810865223, 0.127223715186, -0.209307283163, 0.298913747072, -0.052889019251, -0.209133073688, -0.123317748308, 0.017010163516, 0.208100825548, -0.003624050412, 0.013578146696, 0.020994013175, -0.040180258453, 0.040191318840, -0.540187954903, -0.082401312888, 0.126156032085, 0.127544328570, 0.218261107802, 0.031324718148, -0.002469032770, -0.119295805693, 0.175163447857, 0.211164698005, 0.128758758307, -0.151788875461, -0.101966939867, -0.203115656972, -0.195734590292, 0.119935251772, -0.101894296706, 0.022329650819, 0.151567220688, -0.256007075310, -0.101055204868, -0.191575199366, 0.097880654037, 0.015717467293, -0.191850721836, 0.015996169299, -0.081930011511, 0.177811920643, -0.316880702972, 0.220767498016, 0.366239607334, -0.229627653956, -0.150771617889, 0.151256799698, 0.050113573670, -0.064522631466, 0.017893657088, -0.123678684235, 0.233324617147, -0.088476598263, 0.066109590232, 0.288789957762, 0.277202934027, -0.581354916096, -0.091003887355, -0.033738594502, -0.039978481829, 0.169533178210, -0.073017545044, 0.036779277027, 0.308466613293, 0.212103262544, 0.164600193501, -0.048753641546, -0.097137965262, 0.114276006818, 0.010676156729, -0.080941557884, -0.010045034811, -0.199204236269, -0.102397851646, -0.022150434554, -0.108173772693, 0.040945436805, 0.275974184275, 0.024814654142, -0.142664745450, 0.221305519342, 0.320187449455, 0.109998829663, 0.034638259560, -0.017012871802, -0.222708001733, -0.012924574316, 0.121073156595, -0.083083286881, -0.149843886495, 0.093887761235, 0.264075845480, 0.271287202835, 0.145556166768, -0.002627974609, -0.344494968653, 0.074413135648, -0.158755689859, -0.024832943454, -0.057652272284, -0.059391472489, -0.280294924974, 0.101508095860, 0.142889022827, -0.242357552052, 0.012775498442, -0.143085196614, -0.310379475355, 0.088215254247, 0.116349585354, -0.005828680936, -0.160524994135, 0.130647152662, 0.255296796560, 0.026795363054, 0.061398539692, 0.031861986965, 0.173685893416, -0.017504321411, -0.132414624095, 0.077685572207, 0.182389840484, 0.076982721686, -0.088993713260, 0.084026135504, 0.358192026615, -0.150494068861, 0.129331916571, 0.016881879419, -0.209404349327, 0.075144924223, 0.029506972060, 0.249941095710, -0.121407978237, 0.091383233666, 0.077255092561, -0.037337854505, -0.077048733830, 0.168480411172, 0.384083032608, -0.304269075394, -0.331015586853, -0.019432986155, 0.219907686114, -0.216700762510, 0.152430996299, 0.100015029311, -0.097725138068, -0.026486748829, 0.089816100895, -0.120958119631, -0.146139487624, 0.090203732252, -0.154425427318, 0.072917819023, 0.082841999829, -0.205080926418, -0.235317006707, -0.010298158973, -0.218263879418, 0.085708566010, -0.232719615102, 0.056195151061, -0.063197419047, -0.070036508143, 0.000232124468, 0.104819141328, 0.081680707633, -0.121938385069, 0.175849929452, 0.133147001266, 0.089988708496, 0.061731409281, -0.008418380283, -0.052694838494, -0.041367400438, -0.126709461212, -0.005435329862, -0.030514789745, 0.055956073105, -0.063217982650, 0.104103028774, 0.044675387442, 0.098507344723, 0.061332069337, 0.224014028907, 0.022119456902, -0.218190819025, -0.089079998434, -0.259603619576, -0.124414473772, 0.191046506166, -0.052151158452};
#endif

#endif
