//Numpy array shape [3, 3, 4, 4]
//Min -0.298844307661
//Max 0.413041323423
//Number of zeros 0

#ifndef W38_H_
#define W38_H_

#ifndef __SYNTHESIS__
convu1_2_weight_t w38[144];
#else
convu1_2_weight_t w38[144] = {0.282809, 0.366837, 0.001291, -0.169359, -0.318308, -0.502889, 0.046647, 0.023104, -0.045866, 0.478792, 0.088750, -0.329749, 0.440702, -0.218744, -0.156998, -0.142509, -0.109900, -0.238328, 0.051996, -0.065230, 0.482742, 0.509533, -0.100976, 0.311183, -0.199250, -0.493959, 0.061479, 0.276542, -0.537529, 0.442960, 0.021047, 0.093102, 0.441553, 0.359858, -0.022130, 0.311458, -0.013221, -0.143457, 0.137142, 0.399116, -0.351416, 0.026131, 0.171681, -0.057626, -0.405265, -0.200003, 0.017638, 0.116825, 0.300540, 0.482846, 0.109258, 0.014921, 0.089586, 0.364332, 0.023394, 0.515427, -0.141388, -0.323934, -0.078275, -0.066654, -0.212009, -0.030451, 0.054174, 0.591570, -0.180360, 0.441635, 0.043555, 0.165993, 0.274714, 0.341464, -0.076572, -0.341047, 0.478571, -0.429560, 0.182587, -0.012373, -0.547106, 0.368609, -0.049347, 0.252839, 0.236498, 0.027612, 0.002299, -0.037765, 0.469067, -0.363359, 0.029520, 0.108213, 0.012863, 0.003789, 0.122491, -0.034246, -0.003682, -0.269308, -0.166534, -0.065177, -0.266507, -0.337873, -0.069624, 0.141123, -0.451138, 0.007512, 0.158390, -0.185173, -0.228518, -0.071629, 0.176787, 0.247074, 0.204452, 0.229089, -0.009898, 0.652234, 0.084796, -0.270191, 0.119159, 0.170495, 0.079755, -0.510764, -0.044708, -0.202124, -0.352782, -0.128696, 0.183904, 0.127224, 0.328749, 0.138293, 0.061516, 0.043851, -0.256260, 0.330640, 0.071111, 0.257726, -0.429097, -0.146874, -0.075101, 0.084180, -0.294289, 0.525000, 0.051914, -0.137872, -0.305884, -0.017875, -0.121345, -0.215139};
#endif

#endif
