//Numpy array shape [3, 3, 4, 4]
//Min -0.353788852692
//Max 0.532633721828
//Number of zeros 0

#ifndef W38_H_
#define W38_H_

#ifndef __SYNTHESIS__
convu1_2_weight_t w38[144];
#else
convu1_2_weight_t w38[144] = {-0.055915292352, 0.236504882574, -0.011971070431, -0.098472960293, -0.203536137938, -0.538340866566, 0.210583165288, -0.181927949190, -0.095542930067, 0.587783217430, -0.344531357288, -0.004476062488, 0.055401589721, -0.357242137194, 0.025955595076, -0.280513882637, -0.158940955997, -0.110001862049, -0.013214569539, -0.018401585519, 0.300904184580, 0.460403114557, -0.203813761473, 0.004069432151, -0.087049879134, -0.520602583885, 0.234330609441, 0.035029660910, -0.307753086090, 0.341036140919, 0.086981415749, -0.021147605032, 0.104831039906, 0.435219258070, 0.007536685560, 0.298022300005, -0.021437365562, -0.081639192998, 0.073683902621, 0.186588853598, -0.440864920616, 0.223299488425, -0.146742612123, -0.205452382565, -0.073907561600, -0.079596824944, -0.097331941128, -0.174269348383, -0.026362270117, 0.442202925682, -0.039585724473, 0.099398642778, -0.061144132167, 0.399124830961, 0.225337460637, 0.554401874542, -0.376346677542, -0.136472329497, 0.226009890437, 0.046470880508, 0.101287700236, -0.331822961569, 0.059142637998, 0.551500201225, -0.392410188913, 0.494525671005, 0.131424590945, 0.178782090545, 0.203900635242, 0.401177614927, 0.060567658395, -0.260016083717, 0.418210476637, -0.413318663836, 0.253017008305, -0.127291634679, -0.413461327553, 0.359385222197, -0.024074619636, 0.207847550511, 0.075821503997, 0.142049759626, 0.000993206981, -0.065689958632, 0.488008469343, -0.347043842077, 0.321848213673, 0.011817213148, -0.120120264590, 0.145552039146, -0.241510778666, 0.093462049961, -0.164017260075, -0.036667622626, -0.073003344238, 0.095231220126, -0.152040138841, -0.094536341727, -0.187782883644, 0.120402649045, -0.124330788851, -0.021189717576, 0.241197705269, -0.203913822770, 0.041655234993, 0.006298583932, 0.220703497529, 0.286497533321, 0.058572545648, 0.032642170787, 0.001105026458, 0.844310939312, -0.030428951606, -0.006833010353, 0.041764453053, 0.026613395661, -0.062382284552, -0.569431543350, 0.243070691824, 0.084537886083, -0.272343009710, -0.162603959441, 0.087650567293, 0.559371590614, 0.041008625180, -0.018920445815, 0.187393724918, 0.002603683155, -0.103784225881, 0.545509397984, 0.046369198710, 0.173370733857, -0.362285494804, -0.251846104860, -0.176910236478, 0.062569841743, -0.217994868755, 0.370111584663, 0.036181025207, -0.078898191452, -0.023824684322, 0.126591786742, -0.032524049282, -0.023380272090};
#endif

#endif
