//Numpy array shape [3, 3, 4, 4]
//Min -0.486497879028
//Max 0.529580593109
//Number of zeros 0

#ifndef W42_H_
#define W42_H_

#ifndef __SYNTHESIS__
convu1_3_weight_t w42[144];
#else
convu1_3_weight_t w42[144] = {0.009571724571, 0.181926161051, -0.091999366879, -0.068386979401, 0.020661044866, 0.079744808376, -0.283961683512, 0.077538922429, -0.242403462529, -0.141963377595, 0.188804298639, 0.120448023081, 0.263884574175, 0.152864322066, 0.577758729458, 0.143459156156, -0.013950290158, 0.121490269899, -0.017677595839, 0.067154392600, 0.202881231904, 0.096474319696, -0.302868247032, 0.021391911432, 0.266251057386, 0.018106888980, -0.058307338506, 0.041916672140, -0.107690826058, 0.179822295904, -0.454816341400, 0.132860928774, -0.082009732723, 0.015968758613, 0.092474907637, -0.098383106291, 0.111551791430, 0.002826623386, -0.209420084953, -0.091154806316, 0.104161724448, -0.228567406535, -0.230037987232, -0.096226960421, -0.173830404878, -0.122027501464, -0.017484741285, -0.079892821610, 0.038562491536, 0.145901799202, -0.063160032034, -0.300248175859, -0.595015108585, 0.120139501989, -0.493090927601, -0.030119735748, 0.245533168316, 0.247885808349, -0.229659736156, 0.040895242244, -0.163013592362, -0.155094295740, -0.559254109859, -0.121843531728, 0.073534190655, -0.677498102188, -0.301959365606, 0.003188097617, -0.678745687008, 0.125349342823, -0.211246594787, 0.029053270817, 0.271821379662, 0.022911418229, 0.581797361374, 0.008249790408, -0.107295766473, 0.306918203831, -0.106198072433, 0.195771306753, 0.047280866653, -0.063975155354, -0.084078118205, 0.018247388303, -0.209342569113, 0.372943103313, 0.269461214542, 0.049928553402, -0.083791896701, 0.243196681142, 0.336590945721, 0.132022097707, -0.254354864359, 0.070210911334, -0.367244869471, 0.204621747136, 0.324355095625, 0.899573683739, 0.549863278866, -0.097909323871, -0.513425648212, -0.143961429596, -0.456458717585, -0.095646105707, -0.108931191266, 0.333872079849, 0.306324601173, 0.209309369326, 0.126516610384, 0.006504565943, -0.089664451778, -0.027588892728, 0.147267982364, 0.019494757056, -0.230674967170, -0.295270979404, 0.225425645709, 0.215187162161, -0.159617915750, -0.016447762027, 0.224798053503, -0.190005481243, -0.536912381649, -0.018362823874, -0.271897554398, -0.066893570125, 0.295206665993, 0.110922709107, -0.012131335214, 0.256058514118, 0.090854384005, -0.000565858383, -0.298104375601, 0.136212438345, -0.003268803935, 0.061785709113, 0.069854386151, 0.161380037665, 0.236023500562, -0.106355130672, -0.184537187219, -0.108348518610, 0.036768358201, 0.074261449277};
#endif

#endif
