//Numpy array shape [3, 3, 4, 4]
//Min -0.414070665836
//Max 0.484945923090
//Number of zeros 0

#ifndef W42_H_
#define W42_H_

#ifndef __SYNTHESIS__
convu1_3_weight_t w42[144];
#else
convu1_3_weight_t w42[144] = {0.005036, 0.143479, 0.169612, 0.011673, 0.206830, 0.070608, 0.035252, 0.157490, -0.051527, -0.244841, 0.283913, -0.061256, 0.316298, 0.435527, 0.449238, 0.186046, 0.086833, -0.093995, -0.111556, -0.046919, 0.182179, 0.082235, -0.114916, 0.164061, 0.312641, 0.200091, 0.022284, 0.174061, -0.151687, 0.331810, -0.381829, 0.130372, -0.071713, 0.017291, 0.153878, -0.025638, 0.038265, 0.025252, -0.076663, 0.012854, 0.174230, -0.265883, -0.163849, -0.136231, -0.226975, -0.080517, -0.116652, -0.025349, -0.028997, 0.147849, -0.003699, -0.172622, -0.324143, 0.032527, -0.490558, 0.128831, -0.015193, -0.139595, -0.381837, 0.050519, -0.243828, 0.109259, -0.605619, 0.162235, -0.261941, -0.727410, -0.285145, -0.201141, -0.516160, 0.017050, -0.168327, 0.025509, 0.304523, 0.214617, 0.530769, 0.073538, -0.145154, 0.439839, -0.167993, 0.319775, 0.033603, -0.068848, 0.162119, -0.236162, -0.139945, 0.368706, 0.292052, 0.040677, -0.150356, 0.110375, 0.071319, 0.018927, -0.444474, 0.150038, -0.680110, 0.248342, 0.353894, 0.744938, 0.424486, 0.063328, -0.456709, -0.278817, -0.426893, 0.021026, -0.065774, 0.118264, 0.315884, -0.038460, 0.011002, 0.166364, -0.178847, -0.036243, 0.271423, -0.134802, 0.009543, -0.196650, 0.194121, -0.070285, -0.264969, -0.033553, 0.079019, -0.285927, -0.485243, 0.104507, -0.554952, 0.070114, -0.008459, 0.109698, -0.171019, 0.189311, 0.107193, 0.111148, -0.340954, -0.025786, 0.004031, 0.160672, 0.032121, 0.081193, 0.031952, -0.046839, -0.305058, 0.071038, 0.015625, 0.003503};
#endif

#endif
