//Numpy array shape [3, 3, 4, 4]
//Min -0.499141126871
//Max 0.427937567234
//Number of zeros 0

#ifndef W10_H_
#define W10_H_

#ifndef __SYNTHESIS__
convd1_2_weight_t w10[144];
#else
convd1_2_weight_t w10[144] = {0.018593, 0.054789, 0.076384, 0.052968, -0.086959, 0.098714, 0.025734, 0.007657, 0.016870, 0.042513, -0.049583, 0.043198, 0.068584, 0.018834, -0.185461, 0.013559, -0.112645, -0.059911, 0.094243, -0.252586, 0.022049, 0.080230, -0.092752, 0.069980, -0.068353, -0.354267, -0.101008, -0.043522, -0.279659, -0.229245, -0.180196, 0.081883, -0.041669, -0.164640, 0.103817, 0.097824, -0.038346, -0.311592, 0.080606, 0.415714, 0.170302, 0.092701, -0.130647, 0.253699, -0.006191, -0.105837, -0.103919, 0.131033, -0.125272, -0.373888, -0.012874, -0.066464, -0.138701, -0.015636, 0.046233, 0.001391, 0.138139, -0.010668, -0.190079, -0.073125, 0.333448, 0.233215, 0.147344, 0.021228, -0.198449, -0.401391, 0.175821, 0.030159, 0.127591, 0.076506, -0.019555, -0.172036, 0.002010, 0.241173, -0.077850, -0.370002, 0.085796, -0.082966, -0.002481, 0.008839, -0.061257, 0.154950, -0.072186, -0.120067, -0.483820, -0.209412, -0.201488, -0.054682, -0.162379, 0.030853, -0.170293, -0.177401, 0.169059, -0.006150, -0.028955, -0.012463, 0.100880, 0.065363, -0.073568, -0.035633, -0.236144, -0.118597, -0.240365, 0.003843, -0.190551, 0.098904, -0.274765, 0.128184, 0.091973, 0.195785, 0.027519, -0.017889, 0.101257, 0.049373, 0.106839, 0.097079, 0.232973, 0.008831, 0.095244, -0.009086, -0.210204, 0.110153, 0.145982, 0.011105, 0.049929, 0.044742, -0.108595, -0.024704, 0.074030, 0.063657, -0.273513, -0.360137, -0.051905, -0.001872, -0.047873, 0.081284, 0.001977, -0.065159, 0.067992, -0.087711, -0.007336, 0.114256, 0.020078, -0.016636};
#endif

#endif
