//Numpy array shape [3, 3, 4, 8]
//Min -0.447622537613
//Max 0.408376693726
//Number of zeros 0

#ifndef W22_H_
#define W22_H_

#ifndef __SYNTHESIS__
convb1_1_weight_t w22[288];
#else
convb1_1_weight_t w22[288] = {0.052758, -0.122238, -0.004133, -0.127249, 0.030983, -0.154175, -0.159525, 0.013083, 0.129574, -0.131401, -0.040803, -0.090583, 0.027303, -0.133013, 0.025074, 0.040831, -0.031078, 0.019923, 0.013832, -0.277948, 0.046266, -0.304110, -0.153221, 0.025945, 0.098467, -0.259591, 0.132178, 0.173752, 0.091690, -0.203280, -0.031665, 0.263771, 0.038280, -0.062994, 0.039200, -0.078293, 0.143368, -0.098311, -0.155371, 0.181675, 0.209014, -0.068134, 0.017756, 0.021642, 0.246032, -0.064867, -0.118586, 0.139673, 0.174530, -0.114761, -0.060136, -0.222646, 0.093965, 0.053724, -0.088955, 0.227287, -0.036682, -0.080629, 0.008904, 0.145532, 0.312662, -0.012496, -0.080936, 0.064060, 0.001047, -0.043949, 0.060511, -0.065400, -0.033832, -0.011499, 0.064392, 0.012263, 0.003737, 0.040466, 0.001505, 0.041163, -0.109644, -0.020276, -0.073058, 0.079896, 0.038733, -0.079094, 0.022562, 0.095911, 0.017130, 0.014573, -0.361810, 0.024537, 0.117295, -0.070282, 0.023927, -0.182214, 0.016187, -0.062084, -0.116249, -0.085555, 0.044674, -0.141860, -0.004409, 0.025218, 0.076661, -0.136268, 0.167467, 0.005644, 0.103386, -0.001540, -0.044824, 0.223047, -0.001819, 0.030182, 0.050781, -0.032234, 0.072446, -0.119412, 0.104954, -0.013287, -0.096283, -0.054696, 0.070809, 0.127367, 0.025367, -0.007250, 0.003764, 0.071803, -0.082524, 0.051394, -0.188218, 0.005610, 0.037846, -0.001233, -0.149183, 0.127454, 0.064574, 0.122013, 0.238435, -0.127090, 0.159848, -0.235504, 0.159915, -0.046289, -0.095769, 0.187502, -0.072613, 0.009503, -0.326565, 0.012965, -0.170524, 0.088005, -0.071028, -0.173848, -0.000095, 0.171931, 0.063006, 0.170897, -0.119020, 0.121663, -0.211509, -0.125273, 0.091330, 0.074555, 0.008941, 0.002363, 0.035939, 0.054954, 0.095810, -0.020948, 0.103195, 0.083350, -0.031408, -0.036051, 0.014090, 0.013892, 0.004769, 0.104993, 0.136609, -0.001893, -0.121593, -0.039742, -0.049884, 0.086573, 0.045116, 0.013259, 0.111133, 0.085237, 0.004879, -0.099938, 0.042461, 0.023564, 0.077725, -0.224969, -0.081742, -0.016183, -0.116502, -0.063286, -0.130786, 0.029199, 0.000297, -0.008083, -0.018472, 0.071787, -0.124764, -0.047422, -0.027299, 0.159222, -0.041378, -0.088993, 0.033618, 0.202109, -0.044908, 0.014356, 0.021112, 0.159147, -0.002877, 0.028323, -0.002403, 0.108815, -0.084793, 0.156210, -0.181648, 0.157330, -0.076225, 0.163805, 0.006707, -0.049439, 0.130635, 0.182706, -0.149580, -0.137639, 0.087343, 0.120900, -0.193026, 0.000748, -0.091286, 0.086444, -0.038324, 0.013821, -0.037021, -0.081896, 0.150606, 0.103630, -0.244731, -0.094642, -0.200139, 0.124750, -0.196085, 0.008902, -0.020924, -0.127106, -0.206846, -0.009841, 0.016047, 0.006330, -0.232436, -0.029623, 0.097626, -0.086791, 0.110525, -0.014529, -0.043071, -0.007511, 0.030543, 0.018015, 0.005141, -0.147360, 0.078010, 0.060157, -0.021158, -0.050891, -0.180187, -0.051266, -0.026391, -0.006987, -0.174856, 0.059385, -0.119481, 0.062557, 0.032878, 0.069192, 0.068516, -0.153066, 0.006483, -0.085419, -0.116809, 0.157404, -0.044626, -0.052738, 0.044962, 0.021875};
#endif

#endif
