//Numpy array shape [3, 3, 8, 8]
//Min -0.439264178276
//Max 0.427494555712
//Number of zeros 0

#ifndef W26_H_
#define W26_H_

#ifndef __SYNTHESIS__
convb1_2_weight_t w26[576];
#else
convb1_2_weight_t w26[576] = {-0.226722, 0.255049, 0.255737, -0.158440, 0.393898, 0.195842, 0.135314, -0.038008, -0.102764, -0.242228, 0.068171, -0.052284, 0.056107, -0.060822, 0.051640, -0.296200, -0.273074, -0.499525, -0.186511, 0.084648, 0.087868, 0.096763, 0.099548, -0.037437, 0.081096, 0.165986, 0.212091, 0.149952, 0.026416, -0.164255, 0.170859, 0.206808, 0.025421, 0.212610, 0.455702, -0.092152, 0.423106, 0.041370, 0.095456, 0.557790, 0.113089, -0.197058, -0.291697, 0.027331, 0.090837, -0.096286, -0.054315, 0.203477, -0.008776, 0.032806, -0.002848, -0.012068, 0.073109, 0.042725, -0.054757, 0.272438, -0.032951, -0.321933, 0.053967, -0.232646, 0.441257, -0.011302, 0.068362, -0.228225, -0.334105, -0.235977, -0.058542, -0.250165, 0.508333, 0.048849, 0.303074, -0.082052, -0.277246, 0.218472, -0.235952, -0.281450, 0.482946, 0.028900, -0.029851, -0.176416, 0.249573, 0.345014, -0.422698, -0.031226, 0.257696, -0.111728, -0.069246, -0.088673, 0.325259, -0.102545, -0.266298, -0.203857, 0.244290, -0.068621, 0.063926, -0.130339, -0.436935, -0.028262, -0.301687, -0.384068, 0.109188, 0.123766, 0.003751, -0.059775, 0.134182, -0.292262, -0.301877, 0.024345, -0.308287, -0.139742, 0.201108, -0.265393, -0.084794, -0.203597, -0.021555, 0.123824, 0.063929, 0.012638, -0.121213, 0.142687, -0.159859, -0.055147, -0.143176, -0.126020, -0.065487, 0.064819, 0.013805, 0.138300, -0.150820, 0.148697, 0.095202, -0.192506, -0.020449, 0.003183, 0.155699, 0.327569, 0.349419, -0.216010, -0.017162, 0.026616, 0.210539, 0.018381, 0.185905, -0.052615, -0.073186, 0.196147, -0.442138, -0.026939, -0.231481, 0.140184, -0.193827, -0.271753, -0.000225, 0.036468, 0.026794, 0.005810, 0.590458, -0.098663, 0.168153, 0.024493, 0.117186, -0.002609, -0.484263, -0.248280, 0.245275, 0.010161, -0.040254, -0.154158, 0.035232, -0.325117, -0.079120, 0.102311, -0.006960, -0.173524, 0.019379, -0.180755, -0.263591, -0.222460, -0.123503, 0.100423, -0.321303, -0.079440, 0.070217, 0.011261, 0.094299, 0.218587, 0.010603, -0.136673, 0.588673, -0.039395, -0.240139, -0.045324, -0.054408, 0.181389, -0.024594, -0.034520, 0.225637, 0.072722, -0.237490, -0.022289, 0.096799, -0.237224, 0.314613, -0.015684, -0.289677, 0.004365, -0.015947, -0.010748, -0.007279, -0.120861, -0.096871, 0.079553, -0.144446, 0.024577, 0.133625, -0.151258, -0.159014, 0.087609, 0.020910, -0.004309, -0.035987, -0.043846, -0.018673, 0.030798, -0.150552, -0.159680, 0.136155, 0.422119, -0.048338, -0.088331, 0.154885, -0.011347, -0.000233, 0.552715, -0.397264, -0.051767, 0.201848, 0.061351, -0.066435, -0.027845, -0.193560, 0.534567, -0.078695, 0.002402, -0.273436, 0.102625, -0.017386, -0.072473, 0.086218, -0.188484, 0.104586, -0.253983, 0.028593, -0.026932, -0.027176, 0.094173, -0.422818, -0.008220, 0.220133, -0.176429, -0.006962, 0.013825, -0.131330, -0.105052, 0.180885, -0.183866, 0.185704, 0.028518, 0.233635, -0.014595, -0.034310, -0.360497, 0.309920, 0.100695, -0.068652, 0.260156, 0.145301, 0.117919, -0.547411, -0.232080, -0.414140, -0.183859, -0.222178, -0.311860, 0.185283, 0.151664, -0.017332, 0.019023, -0.065782, 0.167755, 0.069674, -0.074553, -0.106003, -0.020567, 0.182817, 0.021512, 0.182880, 0.049465, 0.340857, -0.159677, -0.037548, 0.223596, 0.043101, 0.492754, -0.233233, -0.017657, -0.243895, 0.014346, -0.195436, -0.097927, -0.036348, -0.307003, 0.030587, 0.156313, -0.324342, 0.141612, -0.019536, 0.040066, 0.218991, -0.299028, 0.339881, -0.191006, -0.043643, -0.187261, 0.109262, 0.017145, 0.137781, 0.212507, 0.010863, 0.168127, -0.009609, 0.110203, 0.109087, 0.124133, 0.034251, 0.023678, 0.578272, 0.023392, 0.163099, 0.016821, -0.373766, 0.036616, -0.041552, 0.174781, 0.069773, 0.245865, -0.172970, -0.086468, 0.083724, -0.035358, -0.109753, 0.181338, 0.282313, -0.007428, 0.062936, -0.098407, -0.081032, -0.061385, 0.006331, 0.122329, 0.030325, 0.195646, 0.247303, -0.120906, 0.037303, 0.032516, -0.165754, -0.038749, -0.309499, -0.055673, 0.173225, -0.145808, -0.086658, 0.105866, 0.165421, -0.155957, -0.179177, 0.115538, -0.205151, 0.084587, 0.252354, 0.094509, 0.051029, -0.241961, 0.116395, 0.001922, -0.210706, 0.124976, 0.007572, -0.061650, 0.060967, 0.105661, 0.078477, 0.043378, 0.194425, 0.128089, -0.213394, -0.041198, -0.121932, -0.009393, -0.040719, -0.183110, 0.146582, -0.252963, -0.542407, -0.033271, -0.196790, 0.085097, -0.067913, 0.255239, 0.084466, -0.317803, -0.097062, 0.003238, -0.215569, -0.276325, 0.046893, 0.098198, 0.249227, 0.058466, 0.064843, 0.066092, -0.188455, -0.130628, -0.066366, -0.180203, -0.016604, -0.073145, 0.240904, -0.070108, 0.117931, -0.053110, -0.142900, 0.237422, 0.068405, -0.001328, -0.466389, 0.074003, -0.011518, -0.155489, -0.314340, -0.070637, 0.411184, -0.155028, -0.269753, 0.083540, 0.182861, 0.233558, 0.040214, 0.126648, 0.080853, 0.064947, -0.336397, 0.042242, 0.056554, 0.273756, -0.486830, -0.133818, 0.196619, -0.403972, -0.759032, 0.042141, 0.005397, 0.212303, -0.015955, -0.234889, 0.035030, 0.011103, 0.485336, 0.096423, -0.189648, 0.437257, -0.300605, -0.173068, -0.078241, -0.148740, 0.152441, 0.048484, -0.055580, -0.115453, 0.016366, 0.459960, -0.345018, 0.016930, -0.141908, 0.200953, -0.053917, -0.007666, 0.179469, -0.255491, 0.086428, -0.461593, 0.916404, -0.028158, -0.171888, -0.071651, -0.617970, 0.318025, 0.437630, -0.059699, 0.071555, 0.033138, 0.086349, -0.340772, 0.105213, -0.402834, -0.255941, -0.358726, 0.105196, 0.293257, 0.083595, 0.121109, 0.135386, 0.274825, 0.178367, -0.059270, -0.309733, 0.000554, -0.106806, 0.011823, 0.408757, 0.147244, -0.008437, -0.158374, -0.215832, 0.017007, -0.224929, -0.124891, -0.006805, -0.008681, 0.120620, 0.237231, -0.021089, 0.078845, -0.291212, -0.062388, 0.081257, -0.051613, 0.145639, -0.037519, -0.224586, -0.029919, 0.123366, -0.050788, 0.057040, 0.071403, -0.059831, -0.070471, 0.170449, 0.074316, -0.272228, -0.110651, -0.106736, -0.131656, -0.277771, 0.114294, 0.278254, -0.036542, -0.283831, -0.004379, -0.143649, 0.351236, 0.368712, -0.195363, 0.012219, -0.037384, -0.221854, -0.162522, 0.053421, -0.074072, 0.099559, -0.402599, -0.018979, -0.080064, -0.173595, 0.114171};
#endif

#endif
