//Numpy array shape [3, 3, 8, 4]
//Min -0.385020881891
//Max 0.345779448748
//Number of zeros 0

#ifndef W31_H_
#define W31_H_

#ifndef __SYNTHESIS__
convu1_1_weight_t w31[288];
#else
convu1_1_weight_t w31[288] = {0.450675, -0.122785, 0.099295, 0.057491, 0.022576, 0.134093, -0.080321, -0.025982, 0.168800, 0.059368, -0.022532, -0.094902, 0.164496, -0.236726, 0.051548, 0.022915, 0.095330, -0.114983, 0.107545, 0.138921, 0.038570, 0.065690, -0.014140, -0.167225, 0.056003, -0.027343, 0.132224, -0.196694, -0.043231, 0.012287, -0.001860, 0.202480, 0.013635, -0.008361, -0.149860, 0.111855, 0.367602, 0.018955, -0.137495, -0.006908, 0.369838, 0.240065, -0.064713, 0.145453, 0.181490, -0.189136, 0.121966, -0.045689, 0.126628, 0.001206, 0.070259, 0.010648, 0.166480, 0.002754, 0.054268, 0.026203, 0.209587, -0.329910, -0.022492, 0.133181, -0.072751, -0.212970, -0.235290, -0.068732, -0.158648, -0.136825, 0.144479, 0.001619, 0.219966, 0.227457, 0.031461, 0.002495, -0.008543, -0.035588, 0.047234, -0.089991, 0.177471, 0.060988, -0.149966, -0.046220, -0.140699, -0.134735, 0.018190, -0.035068, 0.268471, -0.050783, 0.119358, -0.300339, -0.299932, -0.075125, -0.129367, 0.062937, -0.174306, -0.184649, -0.118239, 0.124511, -0.312950, 0.084798, 0.028730, -0.078274, -0.176802, 0.058736, 0.131631, 0.093104, 0.001481, 0.012940, -0.063667, 0.206528, -0.262741, -0.187659, -0.075596, -0.012044, 0.156988, 0.091402, -0.101449, -0.201283, 0.202220, 0.120932, 0.076609, -0.232513, -0.180682, 0.090497, -0.220571, 0.093744, -0.096740, -0.161725, 0.103380, 0.010425, 0.010217, -0.267439, 0.030881, -0.018783, -0.215350, -0.077420, -0.018975, -0.135749, -0.408853, 0.160914, 0.180245, -0.085591, -0.024317, 0.087114, 0.064900, -0.258666, -0.169499, -0.189575, 0.116559, -0.219033, -0.053701, 0.102818, 0.218194, -0.099951, -0.199192, 0.218092, -0.133476, 0.146182, 0.060000, 0.115528, 0.215734, 0.105084, 0.094667, -0.087042, -0.063837, -0.012759, 0.035173, -0.081838, 0.048485, -0.143517, 0.027108, -0.119165, -0.080172, 0.002405, 0.075820, -0.196368, -0.032577, 0.272507, 0.117683, -0.018325, -0.058138, -0.213992, -0.261189, -0.178216, 0.093325, -0.136491, 0.133294, 0.107814, 0.050652, 0.217216, -0.057034, -0.033366, -0.107576, 0.231213, -0.301155, -0.046270, -0.114506, -0.132075, -0.378378, 0.251031, 0.244427, -0.370957, -0.156402, -0.263411, -0.299903, 0.003398, 0.049066, -0.146763, -0.101960, 0.034777, 0.342989, 0.111667, 0.011165, -0.098718, 0.213060, -0.026605, -0.161453, -0.233960, 0.156214, -0.053882, 0.034011, -0.155874, 0.104051, -0.084589, 0.115745, -0.172312, -0.081674, -0.057860, -0.067213, 0.249097, -0.133127, 0.010120, 0.093634, -0.321363, -0.102742, 0.306667, 0.136921, -0.123753, -0.222038, 0.016916, -0.005318, -0.231215, 0.012698, 0.237863, -0.152957, 0.066684, -0.020757, -0.124383, 0.044930, 0.045686, -0.175400, 0.273130, 0.111934, 0.126270, -0.219421, 0.262692, 0.305127, -0.040786, -0.169286, 0.019668, -0.000877, -0.057758, -0.019105, 0.094368, -0.264000, -0.396423, 0.122568, 0.111190, 0.020844, 0.056201, 0.095617, -0.056092, -0.128002, 0.199795, -0.189275, -0.114066, 0.109908, 0.160356, 0.048945, 0.132577, 0.127851, -0.243486, 0.245023, 0.197422, -0.150655, 0.259396, -0.175430, -0.042951, -0.019647, -0.062200};
#endif

#endif
